{"learner":{"attributes":{"best_iteration":"50","best_score":"160.8379121381751"},"feature_names":[],"feature_types":[],"gradient_booster":{"model":{"gbtree_model_param":{"num_parallel_tree":"1","num_trees":"61"},"iteration_indptr":[0,1,2,3,4,5,6,7,8,9,10,11,12,13,14,15,16,17,18,19,20,21,22,23,24,25,26,27,28,29,30,31,32,33,34,35,36,37,38,39,40,41,42,43,44,45,46,47,48,49,50,51,52,53,54,55,56,57,58,59,60,61],"tree_info":[0,0,0,0,0,0,0,0,0,0,0,0,0,0,0,0,0,0,0,0,0,0,0,0,0,0,0,0,0,0,0,0,0,0,0,0,0,0,0,0,0,0,0,0,0,0,0,0,0,0,0,0,0,0,0,0,0,0,0,0,0],"trees":[{"base_weights":[-4.8405377E-6,5.5205357E1,-9.951209E0,8.603145E2,5.1697758E1,-2.6302494E1,7.432247E-1,9.991244E1,-5.567741E0,1.3605181E1,7.564022E1,2.7620447E0,-3.3562794E1,1.0087004E2,-1.4720922E0,5.8197487E1,-3.4331264E0,2.544536E2,6.456063E1,-2.0591372E1,2.7101076E1,-3.6535294E1,3.2512955E1,8.497957E2,4.7002316E1,-1.2995839E1,4.777954E0,1.6256961E2,3.5568085E1,-1.869526E1,2.2021366E1,2.1246165E2,4.9679577E1,5.456792E1,1.6794684E2,-4.758085E1,-6.925478E0,1.4858287E1,1.4333875E2,-4.3792595E1,-2.254999E1,-1.9482336E1,1.9054105E2,9.449395E1,4.4322596E0,1.09227776E2,-6.881359E1,6.786813E0,-2.648933E1,2.3095016E0,7.059872E1,1.13157015E1,3.8253765E1,2.2422373E0,1.7481339E1,-3.0572953E0,7.202031E-1,9.26217E-1,1.2193404E1,1.849062E1,5.382339E1,3.4816804E0,9.872915E0,2.4470406E1,4.839137E0,-6.745254E0,-2.8418446E0,-2.5433233E0,2.3810472E0,-1.3634547E0,3.0814092E0,9.902369E0,2.7512907E1,-5.7028027E0,-3.318215E0,-4.4549584E0,-1.1571049E-1,-1.6003762E-1,-6.9877853E0,9.879106E0,3.3821095E1,1.4451638E0,2.8520918E1,-7.944828E0,2.6730347E-2,-2.6956873E0,1.2110467E0,-2.374956E0,-7.5573397E0,-2.2988832E-2,3.3062215E0,1.0291865E1,-4.0253153E0],"categories":[],"categories_nodes":[],"categories_segments":[],"categories_sizes":[],"default_left":[0,0,0,0,0,0,0,0,0,0,0,0,0,0,0,0,0,0,0,0,0,0,0,0,0,0,0,0,0,0,0,0,0,0,0,0,0,0,0,0,0,0,0,0,0,0,0,0,0,0,0,0,0,0,0,0,0,0,0,0,0,0,0,0,0,0,0,0,0,0,0,0,0,0,0,0,0,0,0,0,0,0,0,0,0,0,0,0,0,0,0,0,0],"id":0,"left_children":[1,3,5,7,9,11,13,-1,-1,15,17,19,21,23,25,27,29,31,33,35,37,39,41,43,45,47,49,51,53,55,57,59,-1,61,63,65,67,69,71,73,75,77,79,-1,-1,81,83,85,87,89,91,-1,-1,-1,-1,-1,-1,-1,-1,-1,-1,-1,-1,-1,-1,-1,-1,-1,-1,-1,-1,-1,-1,-1,-1,-1,-1,-1,-1,-1,-1,-1,-1,-1,-1,-1,-1,-1,-1,-1,-1,-1,-1],"loss_changes":[6.686808E6,5.205345E6,1.8034305E6,1.0728185E6,1.688051E6,8.6062125E5,1.383372E6,0E0,0E0,5.442005E5,2.2361725E6,4.6437203E5,6.4207425E5,5.406352E6,4.3955228E5,4.6186975E5,2.0203792E5,5.660935E5,1.098328E6,1.5347478E5,5.6709956E5,3.15983E5,1.1622692E6,6.4784E5,9.227671E5,5.730266E5,6.427523E5,3.3713494E5,2.9627875E5,1.00190195E5,2.4745769E5,4.21132E5,0E0,8.50479E5,8.5077225E5,5.1393625E4,1.5874683E5,1.654494E5,1.9468688E5,2.8669925E5,5.0305706E5,9.631342E4,4.4079288E5,0E0,0E0,1.3802218E6,3.308064E4,1.5679266E5,1.6980044E5,2.9793288E5,5.1647262E5,0E0,0E0,0E0,0E0,0E0,0E0,0E0,0E0,0E0,0E0,0E0,0E0,0E0,0E0,0E0,0E0,0E0,0E0,0E0,0E0,0E0,0E0,0E0,0E0,0E0,0E0,0E0,0E0,0E0,0E0,0E0,0E0,0E0,0E0,0E0,0E0,0E0,0E0,0E0,0E0,0E0,0E0],"parents":[2147483647,0,0,1,1,2,2,3,3,4,4,5,5,6,6,9,9,10,10,11,11,12,12,13,13,14,14,15,15,16,16,17,17,18,18,19,19,20,20,21,21,22,22,23,23,24,24,25,25,26,26,27,27,28,28,29,29,30,30,31,31,33,33,34,34,35,35,36,36,37,37,38,38,39,39,40,40,41,41,42,42,45,45,46,46,47,47,48,48,49,49,50,50],"right_children":[2,4,6,8,10,12,14,-1,-1,16,18,20,22,24,26,28,30,32,34,36,38,40,42,44,46,48,50,52,54,56,58,60,-1,62,64,66,68,70,72,74,76,78,80,-1,-1,82,84,86,88,90,92,-1,-1,-1,-1,-1,-1,-1,-1,-1,-1,-1,-1,-1,-1,-1,-1,-1,-1,-1,-1,-1,-1,-1,-1,-1,-1,-1,-1,-1,-1,-1,-1,-1,-1,-1,-1,-1,-1,-1,-1,-1,-1],"split_conditions":[-8.185429E-1,-2.6758066E-1,1.5727727E-1,-4.532127E-1,-6.293453E-1,-5.7188666E-1,-2.6758066E-1,9.991244E1,-5.567741E0,-9.5420384E-1,-9.624257E-1,-5.2855605E-1,3.3670774E-1,-7.075476E-1,-4.6763486E-1,-2.4404843E-1,1.244E3,-5.5391914E-1,-3.095714E-1,1.76E2,6.9E2,1.43E2,9.614929E-1,-3.789469E-1,8.6525387E-1,-6.376617E-1,2.7291958E0,-6.3556176E-1,-6.329094E-1,-1.2076525E-1,-6.3150036E-1,4.945E3,4.9679577E1,8.12E2,-8.5554135E-1,-2.53124E-1,-5.8897984E-1,-4.049731E-1,2.08E3,8.960729E-2,-7.446328E-2,5.530343E0,-3.662799E-2,9.449395E1,4.4322596E0,5.956195E-1,3.0725892E0,5.9E1,2.260549E0,1.6297109E0,3.8720365E0,1.13157015E1,3.8253765E1,2.2422373E0,1.7481339E1,-3.0572953E0,7.202031E-1,9.26217E-1,1.2193404E1,1.849062E1,5.382339E1,3.4816804E0,9.872915E0,2.4470406E1,4.839137E0,-6.745254E0,-2.8418446E0,-2.5433233E0,2.3810472E0,-1.3634547E0,3.0814092E0,9.902369E0,2.7512907E1,-5.7028027E0,-3.318215E0,-4.4549584E0,-1.1571049E-1,-1.6003762E-1,-6.9877853E0,9.879106E0,3.3821095E1,1.4451638E0,2.8520918E1,-7.944828E0,2.6730347E-2,-2.6956873E0,1.2110467E0,-2.374956E0,-7.5573397E0,-2.2988832E-2,3.3062215E0,1.0291865E1,-4.0253153E0],"split_indices":[1,3,2,0,0,1,3,0,0,1,1,0,3,1,0,3,4,0,0,4,4,4,1,0,0,1,1,0,0,3,0,4,0,4,1,3,0,0,4,0,1,3,0,0,0,1,0,4,1,0,1,0,0,0,0,0,0,0,0,0,0,0,0,0,0,0,0,0,0,0,0,0,0,0,0,0,0,0,0,0,0,0,0,0,0,0,0,0,0,0,0,0,0],"split_type":[0,0,0,0,0,0,0,0,0,0,0,0,0,0,0,0,0,0,0,0,0,0,0,0,0,0,0,0,0,0,0,0,0,0,0,0,0,0,0,0,0,0,0,0,0,0,0,0,0,0,0,0,0,0,0,0,0,0,0,0,0,0,0,0,0,0,0,0,0,0,0,0,0,0,0,0,0,0,0,0,0,0,0,0,0,0,0,0,0,0,0,0,0],"sum_hessian":[1.217E4,1.858E3,1.0312E4,7E0,1.851E3,4.077E3,6.235E3,6E0,1E0,7.15E2,1.136E3,8.15E2,3.262E3,1.34E2,6.101E3,1.97E2,5.18E2,6.5E1,1.071E3,4.16E2,3.99E2,3.122E3,1.4E2,8E0,1.26E2,2.145E3,3.956E3,3.4E1,1.63E2,3.24E2,1.94E2,5.7E1,8E0,9.78E2,9.3E1,1.39E2,2.77E2,3.62E2,3.7E1,2.054E3,1.068E3,1.06E2,3.4E1,7E0,1E0,8.2E1,4.4E1,8.7E2,1.275E3,3.814E3,1.42E2,2.9E1,5E0,1.5E2,1.3E1,2.22E2,1.02E2,1.73E2,2.1E1,5.4E1,3E0,6.77E2,3.01E2,5.6E1,3.7E1,6.7E1,7.2E1,1.73E2,1.04E2,1.3E2,2.32E2,2.9E1,8E0,9.12E2,1.142E3,5.26E2,5.42E2,7.9E1,2.7E1,2.2E1,1.2E1,5.4E1,2.8E1,3.8E1,6E0,1.18E2,7.52E2,1.209E3,6.6E1,3.524E3,2.9E2,1.1E2,3.2E1],"tree_param":{"num_deleted":"0","num_feature":"5","num_nodes":"93","size_leaf_vector":"1"}},{"base_weights":[4.194391E-2,4.986722E1,-8.939462E0,6.5612524E2,4.5903496E1,-2.3659407E1,6.880048E-1,9.323214E1,8.2986275E1,5.979383E0,6.504566E1,2.5218484E0,-3.0199476E1,9.167914E1,-1.3251861E0,3.7519573E1,-8.386501E0,3.4464386E1,-1.5318947E1,2.902917E2,5.8121384E1,-2.376621E1,2.0239573E1,-3.2886116E1,2.9520891E1,7.75808E2,4.2475685E1,-2.3430126E0,5.797854E1,1.0587477E2,2.0419476E1,-1.668384E0,-3.4494434E1,4.4622385E2,1.9759532E2,5.255716E1,1.9504327E2,-4.2472996E1,-1.1332264E1,1.5789383E1,2.117806E2,-3.7272976E1,-1.4028574E1,-1.760091E1,1.7273552E2,8.622573E1,4.210646E0,-4.3323627E1,1.1295975E2,-1.1701576E1,2.867317E0,3.4228825E1,8.3822595E2,7.1607437E0,4.1351257E1,8.645287E0,8.88711E-1,2.40885E0,-1.4918807E0,-4.473207E0,2.415246E-1,2.5716352E1,8.0731865E1,1.5087997E1,4.898812E1,3.7794693E0,1.1286022E1,2.8245426E1,6.291574E0,-4.776852E0,5.8157463E0,-3.7673302E0,3.2533637E-1,-2.736605E-1,3.1073163E0,2.4284542E1,-4.943386E0,-4.749148E0,-2.8067544E0,-3.595518E0,1.2172891E0,-1.4423424E-1,-6.3139644E0,8.934147E0,3.0699148E1,8.984878E0,-6.336393E0,2.0401915E1,-5.91079E0,3.5102054E-1,-2.6008775E0,8.4025905E-2,6.188298E0,-7.3926085E-1,1.2420607E1,1.2926695E2,-3.5330522E0],"categories":[],"categories_nodes":[],"categories_segments":[],"categories_sizes":[],"default_left":[0,0,0,0,0,0,0,0,0,0,0,0,0,0,0,0,0,0,0,0,0,0,0,0,0,0,0,0,0,0,0,0,0,0,0,0,0,0,0,0,0,0,0,0,0,0,0,0,0,0,0,0,0,0,0,0,0,0,0,0,0,0,0,0,0,0,0,0,0,0,0,0,0,0,0,0,0,0,0,0,0,0,0,0,0,0,0,0,0,0,0,0,0,0,0,0,0],"id":1,"left_children":[1,3,5,7,9,11,13,-1,15,17,19,21,23,25,27,-1,-1,29,31,33,35,37,39,41,43,45,47,49,51,53,55,57,59,61,63,65,67,69,71,73,75,77,79,81,83,-1,-1,85,87,89,91,93,95,-1,-1,-1,-1,-1,-1,-1,-1,-1,-1,-1,-1,-1,-1,-1,-1,-1,-1,-1,-1,-1,-1,-1,-1,-1,-1,-1,-1,-1,-1,-1,-1,-1,-1,-1,-1,-1,-1,-1,-1,-1,-1,-1,-1],"loss_changes":[5.446981E6,4.4371325E6,1.461531E6,1.8222155E6,1.411916E6,6.9834075E5,1.1424478E6,0E0,2.752434E5,3.6453775E5,1.931151E6,3.805449E5,5.245095E5,4.51135E6,3.6845803E5,0E0,0E0,2.555969E5,8.9986586E4,4.46639E5,9.1389025E5,7.604381E4,4.1262434E5,2.5782875E5,9.545831E5,5.34546E5,7.729243E5,2.9260075E5,1.8799654E6,4.1315034E5,1.6372025E5,6.9299875E4,5.4143156E4,6.7988025E5,2.6744262E5,1.03462325E6,5.250506E5,7.25868E4,7.657848E4,1.3542934E5,1.0126525E5,2.3693525E5,3.3997262E5,7.8643875E4,3.64438E5,0E0,0E0,1.6048447E5,1.1088454E6,4.6714247E5,4.611146E5,3.7916134E5,1.2366168E6,0E0,0E0,0E0,0E0,0E0,0E0,0E0,0E0,0E0,0E0,0E0,0E0,0E0,0E0,0E0,0E0,0E0,0E0,0E0,0E0,0E0,0E0,0E0,0E0,0E0,0E0,0E0,0E0,0E0,0E0,0E0,0E0,0E0,0E0,0E0,0E0,0E0,0E0,0E0,0E0,0E0,0E0,0E0,0E0],"parents":[2147483647,0,0,1,1,2,2,3,3,4,4,5,5,6,6,8,8,9,9,10,10,11,11,12,12,13,13,14,14,17,17,18,18,19,19,20,20,21,21,22,22,23,23,24,24,25,25,26,26,27,27,28,28,29,29,30,30,31,31,32,32,33,33,34,34,35,35,36,36,37,37,38,38,39,39,40,40,41,41,42,42,43,43,44,44,47,47,48,48,49,49,50,50,51,51,52,52],"right_children":[2,4,6,8,10,12,14,-1,16,18,20,22,24,26,28,-1,-1,30,32,34,36,38,40,42,44,46,48,50,52,54,56,58,60,62,64,66,68,70,72,74,76,78,80,82,84,-1,-1,86,88,90,92,94,96,-1,-1,-1,-1,-1,-1,-1,-1,-1,-1,-1,-1,-1,-1,-1,-1,-1,-1,-1,-1,-1,-1,-1,-1,-1,-1,-1,-1,-1,-1,-1,-1,-1,-1,-1,-1,-1,-1,-1,-1,-1,-1,-1,-1],"split_conditions":[-8.185429E-1,-2.6750034E-1,1.5727727E-1,9E0,-6.329094E-1,-5.7188666E-1,-2.6758066E-1,9.323214E1,-6.347329E-1,-9.4187105E-1,-9.706476E-1,-5.6361675E-1,3.3670774E-1,-7.075476E-1,2.661558E0,3.7519573E1,-8.386501E0,-2.4404843E-1,-8.8842887E-1,3.4E2,-4.839779E-2,2.28E2,2.08E3,3.08E2,9.614929E-1,-3.789469E-1,-7.446328E-2,-4.6763486E-1,6.31E2,-2.4581535E-1,-9.747585E-1,4.15E2,1.913E3,-1.9682334E-1,4.945E3,1.487E3,-8.5554135E-1,1.0250984E-1,-6.142601E-1,9.1E1,-4.6315902E-1,6.3829765E-2,-4.9797654E-2,5.530343E0,-3.662799E-2,8.622573E1,4.210646E0,-6.5821636E-1,8.6525387E-1,-5.842195E-1,2.7291958E0,3.4E1,1.9274764E-1,7.1607437E0,4.1351257E1,8.645287E0,8.88711E-1,2.40885E0,-1.4918807E0,-4.473207E0,2.415246E-1,2.5716352E1,8.0731865E1,1.5087997E1,4.898812E1,3.7794693E0,1.1286022E1,2.8245426E1,6.291574E0,-4.776852E0,5.8157463E0,-3.7673302E0,3.2533637E-1,-2.736605E-1,3.1073163E0,2.4284542E1,-4.943386E0,-4.749148E0,-2.8067544E0,-3.595518E0,1.2172891E0,-1.4423424E-1,-6.3139644E0,8.934147E0,3.0699148E1,8.984878E0,-6.336393E0,2.0401915E1,-5.91079E0,3.5102054E-1,-2.6008775E0,8.4025905E-2,6.188298E0,-7.3926085E-1,1.2420607E1,1.2926695E2,-3.5330522E0],"split_indices":[1,3,2,4,0,1,3,0,0,1,1,0,3,1,0,0,0,3,1,4,0,4,4,4,1,0,1,0,4,3,1,4,4,3,4,4,1,3,0,4,0,0,1,3,0,0,0,1,0,1,1,4,1,0,0,0,0,0,0,0,0,0,0,0,0,0,0,0,0,0,0,0,0,0,0,0,0,0,0,0,0,0,0,0,0,0,0,0,0,0,0,0,0,0,0,0,0],"split_type":[0,0,0,0,0,0,0,0,0,0,0,0,0,0,0,0,0,0,0,0,0,0,0,0,0,0,0,0,0,0,0,0,0,0,0,0,0,0,0,0,0,0,0,0,0,0,0,0,0,0,0,0,0,0,0,0,0,0,0,0,0,0,0,0,0,0,0,0,0,0,0,0,0,0,0,0,0,0,0,0,0,0,0,0,0,0,0,0,0,0,0,0,0,0,0,0,0],"sum_hessian":[1.217E4,1.858E3,1.0312E4,1.1E1,1.847E3,4.077E3,6.235E3,7E0,4E0,5.99E2,1.248E3,8.15E2,3.262E3,1.34E2,6.101E3,1E0,3E0,2.56E2,3.43E2,3.6E1,1.212E3,3.28E2,4.87E2,3.122E3,1.4E2,8E0,1.26E2,5.999E3,1.02E2,4.1E1,2.15E2,2.01E2,1.42E2,1.2E1,2.4E1,1.166E3,4.6E1,1.3E2,1.98E2,4.77E2,1E1,2.532E3,5.9E2,1.06E2,3.4E1,7E0,1E0,5.7E1,6.9E1,2.145E3,3.854E3,1E2,2E0,3.8E1,3E0,3.1E1,1.84E2,6.8E1,1.33E2,1.11E2,3.1E1,9E0,3E0,2.2E1,2E0,9.38E2,2.28E2,2.7E1,1.9E1,1.24E2,6E0,7E1,1.28E2,2.16E2,2.61E2,9E0,1E0,1.198E3,1.334E3,3.21E2,2.69E2,7.9E1,2.7E1,2.2E1,1.2E1,7E0,5E1,4.5E1,2.4E1,1.04E3,1.105E3,3.727E3,1.27E2,6.9E1,3.1E1,1E0,1E0],"tree_param":{"num_deleted":"0","num_feature":"5","num_nodes":"97","size_leaf_vector":"1"}},{"base_weights":[9.4378956E-2,4.5094177E1,-8.0172E0,6.007098E2,4.146188E1,-2.128292E1,6.591347E-1,8.507433E1,8.051426E1,9.918268E0,6.1313927E1,2.2938974E0,-2.717241E1,8.330808E1,-1.16949E0,3.5643593E1,-7.7575135E0,4.4956673E1,-3.4005835E0,2.1476866E2,5.1782284E1,-1.7281448E1,2.269546E1,-2.9600687E1,2.6804089E1,7.082757E2,3.8363075E1,-2.1080422E0,5.351481E1,1.200366E2,2.9117195E1,-1.67535E1,1.8871717E1,1.7771121E2,4.297201E1,4.6012115E1,1.7627377E2,-4.0088802E1,-5.7335663E0,1.2103979E1,1.2327472E2,-3.8354393E1,-2.0715103E1,-1.5901172E1,1.5659435E2,7.8680984E1,4.000114E0,-3.89456E1,1.0187079E2,-1.2097442E1,2.0613902E0,3.0921597E1,7.963147E2,5.7782393E0,2.8654469E1,1.7719746E0,1.4996704E1,-6.364105E-1,-4.1470246E0,8.264126E-1,1.0191031E1,1.5318268E1,4.705508E1,3.0427883E0,9.459016E0,2.5521759E1,5.6938744E0,-5.7557206E0,-2.3267703E0,-2.700671E0,1.3407851E0,-1.4048842E0,2.675598E0,2.0017637E1,6.441816E0,-5.070187E0,-2.9998748E0,-3.9635365E0,-1.1389563E0,-1.2999055E-1,-5.7051177E0,8.079577E0,2.7865377E1,8.1987E0,-5.715178E0,8.3339905E1,7.9190683E0,1.9245394E-1,-2.7644393E0,-1.15068994E-1,3.0851896E0,-6.6639113E-1,1.121736E1,1.22803604E2,-3.3563995E0],"categories":[],"categories_nodes":[],"categories_segments":[],"categories_sizes":[],"default_left":[0,0,0,0,0,0,0,0,0,0,0,0,0,0,0,0,0,0,0,0,0,0,0,0,0,0,0,0,0,0,0,0,0,0,0,0,0,0,0,0,0,0,0,0,0,0,0,0,0,0,0,0,0,0,0,0,0,0,0,0,0,0,0,0,0,0,0,0,0,0,0,0,0,0,0,0,0,0,0,0,0,0,0,0,0,0,0,0,0,0,0,0,0,0,0],"id":2,"left_children":[1,3,5,7,9,11,13,-1,15,17,19,21,23,25,27,-1,-1,29,31,33,35,37,39,41,43,45,47,49,51,53,55,57,59,61,-1,63,65,67,69,71,73,75,77,79,81,-1,-1,83,85,87,89,91,93,-1,-1,-1,-1,-1,-1,-1,-1,-1,-1,-1,-1,-1,-1,-1,-1,-1,-1,-1,-1,-1,-1,-1,-1,-1,-1,-1,-1,-1,-1,-1,-1,-1,-1,-1,-1,-1,-1,-1,-1,-1,-1],"loss_changes":[4.4430125E6,3.726853E6,1.187018E6,1.4922985E6,1.1566192E6,5.6631475E5,9.4256844E5,0E0,2.4575198E5,3.3382288E5,1.647553E6,3.262762E5,4.2847475E5,3.764867E6,3.1329228E5,0E0,0E0,2.3078256E5,1.5466686E5,4.4936025E5,7.5979125E5,1.0959819E5,4.246212E5,2.42118E5,7.840145E5,4.40868E5,6.27499E5,2.499257E5,1.7039468E6,3.3588097E5,2.2323297E5,8.319348E4,1.709215E5,3.4452938E5,0E0,7.715855E5,4.28244E5,3.979808E4,1.1356317E5,1.3947423E5,1.5909931E5,1.6066375E5,2.73386E5,6.4215945E4,3.0130356E5,0E0,0E0,1.3238552E5,1.0953822E6,3.852575E5,3.9158484E5,3.0919116E5,1.1160469E6,0E0,0E0,0E0,0E0,0E0,0E0,0E0,0E0,0E0,0E0,0E0,0E0,0E0,0E0,0E0,0E0,0E0,0E0,0E0,0E0,0E0,0E0,0E0,0E0,0E0,0E0,0E0,0E0,0E0,0E0,0E0,0E0,0E0,0E0,0E0,0E0,0E0,0E0,0E0,0E0,0E0,0E0],"parents":[2147483647,0,0,1,1,2,2,3,3,4,4,5,5,6,6,8,8,9,9,10,10,11,11,12,12,13,13,14,14,17,17,18,18,19,19,20,20,21,21,22,22,23,23,24,24,25,25,26,26,27,27,28,28,29,29,30,30,31,31,32,32,33,33,35,35,36,36,37,37,38,38,39,39,40,40,41,41,42,42,43,43,44,44,47,47,48,48,49,49,50,50,51,51,52,52],"right_children":[2,4,6,8,10,12,14,-1,16,18,20,22,24,26,28,-1,-1,30,32,34,36,38,40,42,44,46,48,50,52,54,56,58,60,62,-1,64,66,68,70,72,74,76,78,80,82,-1,-1,84,86,88,90,92,94,-1,-1,-1,-1,-1,-1,-1,-1,-1,-1,-1,-1,-1,-1,-1,-1,-1,-1,-1,-1,-1,-1,-1,-1,-1,-1,-1,-1,-1,-1,-1,-1,-1,-1,-1,-1,-1,-1,-1,-1,-1,-1],"split_conditions":[-8.185429E-1,-2.6750034E-1,1.5727727E-1,9E0,-6.293453E-1,-5.7188666E-1,-2.6758066E-1,8.507433E1,-6.347329E-1,-9.5420384E-1,-9.624257E-1,-5.2855605E-1,3.3670774E-1,-7.075476E-1,2.661558E0,3.5643593E1,-7.7575135E0,-2.4404843E-1,1.244E3,-5.5391914E-1,-4.839779E-2,1.76E2,6.9E2,6.9E1,9.614929E-1,-3.789469E-1,-7.446328E-2,-5.1123285E-1,6.31E2,-2.5111613E-1,-6.329094E-1,-8.719851E-1,-6.3150036E-1,4.945E3,4.297201E1,8.3314605E-2,-8.5554135E-1,-2.53124E-1,-6.001695E-1,-4.049731E-1,-6.952148E-1,8.960729E-2,-4.001657E-1,5.530343E0,-3.662799E-2,7.8680984E1,4.000114E0,-6.5821636E-1,-6.2130466E-2,-5.842195E-1,1.7137944E0,3.4E1,1.9274764E-1,5.7782393E0,2.8654469E1,1.7719746E0,1.4996704E1,-6.364105E-1,-4.1470246E0,8.264126E-1,1.0191031E1,1.5318268E1,4.705508E1,3.0427883E0,9.459016E0,2.5521759E1,5.6938744E0,-5.7557206E0,-2.3267703E0,-2.700671E0,1.3407851E0,-1.4048842E0,2.675598E0,2.0017637E1,6.441816E0,-5.070187E0,-2.9998748E0,-3.9635365E0,-1.1389563E0,-1.2999055E-1,-5.7051177E0,8.079577E0,2.7865377E1,8.1987E0,-5.715178E0,8.3339905E1,7.9190683E0,1.9245394E-1,-2.7644393E0,-1.15068994E-1,3.0851896E0,-6.6639113E-1,1.121736E1,1.22803604E2,-3.3563995E0],"split_indices":[1,3,2,4,0,1,3,0,0,1,1,0,3,1,0,0,0,3,4,0,0,4,4,4,1,0,1,0,4,3,0,1,0,4,0,3,1,3,0,0,1,0,0,3,0,0,0,1,1,1,1,4,1,0,0,0,0,0,0,0,0,0,0,0,0,0,0,0,0,0,0,0,0,0,0,0,0,0,0,0,0,0,0,0,0,0,0,0,0,0,0,0,0,0,0],"split_type":[0,0,0,0,0,0,0,0,0,0,0,0,0,0,0,0,0,0,0,0,0,0,0,0,0,0,0,0,0,0,0,0,0,0,0,0,0,0,0,0,0,0,0,0,0,0,0,0,0,0,0,0,0,0,0,0,0,0,0,0,0,0,0,0,0,0,0,0,0,0,0,0,0,0,0,0,0,0,0,0,0,0,0,0,0,0,0,0,0,0,0,0,0,0,0],"sum_hessian":[1.217E4,1.858E3,1.0312E4,1.1E1,1.847E3,4.077E3,6.235E3,7E0,4E0,7.14E2,1.133E3,8.15E2,3.262E3,1.34E2,6.101E3,1E0,3E0,1.96E2,5.18E2,6.5E1,1.068E3,4.16E2,3.99E2,3.122E3,1.4E2,8E0,1.26E2,5.999E3,1.02E2,3.3E1,1.63E2,3.24E2,1.94E2,5.7E1,8E0,1.022E3,4.6E1,1.39E2,2.77E2,3.62E2,3.7E1,1.571E3,1.551E3,1.06E2,3.4E1,7E0,1E0,5.7E1,6.9E1,1.766E3,4.233E3,1E2,2E0,2.5E1,8E0,1.5E2,1.3E1,2.29E2,9.5E1,1.73E2,2.1E1,5.4E1,3E0,7.75E2,2.47E2,2.7E1,1.9E1,6.7E1,7.2E1,1.31E2,1.46E2,1.3E2,2.32E2,1.5E1,2.2E1,6.32E2,9.39E2,5.11E2,1.04E3,7.9E1,2.7E1,2.2E1,1.2E1,7E0,5E1,1E0,6.8E1,9.29E2,8.37E2,3.809E3,4.24E2,6.9E1,3.1E1,1E0,1E0],"tree_param":{"num_deleted":"0","num_feature":"5","num_nodes":"95","size_leaf_vector":"1"}},{"base_weights":[1.3929063E-1,4.6402843E1,-6.313886E0,3.3291622E1,1.2528421E2,8.868313E1,-7.6295595E0,5.215515E1,3.2118504E1,3.3199484E2,1.05560745E2,6.434734E2,3.419838E1,-1.9202328E1,-1.0910005E-2,7.63088E1,2.1765059E1,3.5626254E2,-4.027827E0,9.066524E0,1.3444856E2,7.64181E1,-1.3611995E1,1.314718E2,-7.1188345E0,-3.1456062E1,-9.74191E0,1.2188501E1,-3.931966E0,1.8484364E1,1.26817924E2,-1.8267443E0,3.824364E1,3.676262E-1,3.7806942E1,-3.1214357E1,1.7813396E2,3.2965527E2,1.11929825E2,3.8001084E0,-5.8419075E0,-9.351598E0,3.0410883E2,3.2784824E1,-4.6874184E1,-1.3432954E1,-3.498559E1,-2.00537E1,-5.055836E-1,2.5306051E1,-3.3162272E-1,-1.7380466E1,3.4651089E0,7.6181083E0,-8.041792E-1,1.829666E1,7.8373003E0,-5.1665306E0,2.3416083E-1,1.7007796E0,9.093269E0,1.8917063E1,-4.228343E0,2.403415E1,-2.6394937E0,3.1327958E0,6.661253E1,-2.3537278E0,1.3279376E1,1.1671504E1,-6.07113E0,3.9773087E1,1.8943811E1,3.9590767E-1,3.488783E1,9.532753E0,-5.8472686E0,-4.3628216E0,-6.9327794E-2,-4.9937716E0,-2.9000082E0,-2.622144E-1,-3.4879181E0,-8.139187E0,3.223881E-1,-4.4104338E-1,4.1386213E0,1.7168888E0,-1.5331285E0,-2.8193057E0,9.302452E-1,5.7859648E-2,7.462121E0],"categories":[],"categories_nodes":[],"categories_segments":[],"categories_sizes":[],"default_left":[0,0,0,0,0,0,0,0,0,0,0,0,0,0,0,0,0,0,0,0,0,0,0,0,0,0,0,0,0,0,0,0,0,0,0,0,0,0,0,0,0,0,0,0,0,0,0,0,0,0,0,0,0,0,0,0,0,0,0,0,0,0,0,0,0,0,0,0,0,0,0,0,0,0,0,0,0,0,0,0,0,0,0,0,0,0,0,0,0,0,0,0,0],"id":3,"left_children":[1,3,5,7,9,11,13,-1,15,17,19,21,23,25,27,29,31,33,-1,35,37,-1,39,41,43,45,47,49,51,53,55,57,59,-1,-1,61,63,65,67,-1,-1,69,71,73,75,77,79,81,83,85,87,89,91,-1,-1,-1,-1,-1,-1,-1,-1,-1,-1,-1,-1,-1,-1,-1,-1,-1,-1,-1,-1,-1,-1,-1,-1,-1,-1,-1,-1,-1,-1,-1,-1,-1,-1,-1,-1,-1,-1,-1,-1],"loss_changes":[3.6339072E6,1.5368332E6,1.3357669E6,7.1584225E5,8.29289E5,4.3912255E6,9.29035E5,0E0,5.8259475E5,1.769655E5,5.42345E5,1.041499E6,5.394909E5,4.8460975E5,3.0403666E5,7.044559E5,4.0282456E5,1.2932E5,0E0,3.1882888E5,6.22473E5,0E0,9.157882E3,9.7529725E5,1.5224323E5,1.15433125E5,2.2495394E5,2.5391316E5,4.7855694E5,1.7508647E5,3.365555E5,8.882797E4,6.8098056E5,0E0,0E0,1.0069813E5,1.2085297E5,1.4848048E6,3.87513E5,0E0,0E0,1.5600505E5,1.1789725E5,4.35977E5,8.474174E4,1.1537311E5,1.3485438E5,2.8831772E5,3.7643556E5,3.6095616E5,2.0816461E5,4.927513E5,6.374965E5,0E0,0E0,0E0,0E0,0E0,0E0,0E0,0E0,0E0,0E0,0E0,0E0,0E0,0E0,0E0,0E0,0E0,0E0,0E0,0E0,0E0,0E0,0E0,0E0,0E0,0E0,0E0,0E0,0E0,0E0,0E0,0E0,0E0,0E0,0E0,0E0,0E0,0E0,0E0,0E0],"parents":[2147483647,0,0,1,1,2,2,3,3,4,4,5,5,6,6,8,8,9,9,10,10,11,11,12,12,13,13,14,14,15,15,16,16,17,17,19,19,20,20,22,22,23,23,24,24,25,25,26,26,27,27,28,28,29,29,30,30,31,31,32,32,35,35,36,36,37,37,38,38,41,41,42,42,43,43,44,44,45,45,46,46,47,47,48,48,49,49,50,50,51,51,52,52],"right_children":[2,4,6,8,10,12,14,-1,16,18,20,22,24,26,28,30,32,34,-1,36,38,-1,40,42,44,46,48,50,52,54,56,58,60,-1,-1,62,64,66,68,-1,-1,70,72,74,76,78,80,82,84,86,88,90,92,-1,-1,-1,-1,-1,-1,-1,-1,-1,-1,-1,-1,-1,-1,-1,-1,-1,-1,-1,-1,-1,-1,-1,-1,-1,-1,-1,-1,-1,-1,-1,-1,-1,-1,-1,-1,-1,-1,-1,-1],"split_conditions":[-8.514304E-1,-5.4422146E-1,-2.6758066E-1,-2.6750034E-1,-9.45982E-1,-7.075476E-1,1.5727727E-1,5.215515E1,-9.583148E-1,1.653E3,-3.327205E-1,-3.789469E-1,-5.297105E-3,6.9E1,-6.212179E-1,-6.371366E-1,-6.3150036E-1,5E0,-4.027827E0,-2.2328712E-1,9E0,7.64181E1,-2.6240927E-1,1.597734E-2,8.6525387E-1,-5.225554E-1,-4.001657E-1,6.4727503E-1,-3.6982945E-1,6.2E2,-1.291983E-1,-3.327205E-1,1.109E3,3.676262E-1,3.7806942E1,-5.42398E-1,1.2782745E0,-8.719851E-1,-2.635649E-1,3.8001084E0,-5.8419075E0,-6.5821636E-1,4E0,8.1469345E-1,-2.7827094E0,-4.897654E-1,-1.0658372E-1,-6.047742E-1,-1.8027138E0,-6.001695E-1,-2.3497286E-1,-6.2130466E-2,2.7291958E0,7.6181083E0,-8.041792E-1,1.829666E1,7.8373003E0,-5.1665306E0,2.3416083E-1,1.7007796E0,9.093269E0,1.8917063E1,-4.228343E0,2.403415E1,-2.6394937E0,3.1327958E0,6.661253E1,-2.3537278E0,1.3279376E1,1.1671504E1,-6.07113E0,3.9773087E1,1.8943811E1,3.9590767E-1,3.488783E1,9.532753E0,-5.8472686E0,-4.3628216E0,-6.9327794E-2,-4.9937716E0,-2.9000082E0,-2.622144E-1,-3.4879181E0,-8.139187E0,3.223881E-1,-4.4104338E-1,4.1386213E0,1.7168888E0,-1.5331285E0,-2.8193057E0,9.302452E-1,5.7859648E-2,7.462121E0],"split_indices":[1,0,3,3,1,1,2,0,1,4,2,0,0,4,1,0,0,4,0,0,4,0,0,1,0,1,0,2,0,4,3,2,4,0,0,0,0,1,3,0,0,1,4,0,2,0,0,1,2,0,3,1,1,0,0,0,0,0,0,0,0,0,0,0,0,0,0,0,0,0,0,0,0,0,0,0,0,0,0,0,0,0,0,0,0,0,0,0,0,0,0,0,0],"split_type":[0,0,0,0,0,0,0,0,0,0,0,0,0,0,0,0,0,0,0,0,0,0,0,0,0,0,0,0,0,0,0,0,0,0,0,0,0,0,0,0,0,0,0,0,0,0,0,0,0,0,0,0,0,0,0,0,0,0,0,0,0,0,0,0,0,0,0,0,0,0,0,0,0,0,0,0,0,0,0,0,0,0,0,0,0,0,0,0,0,0,0,0,0],"sum_hessian":[1.217E4,1.489E3,1.0681E4,1.278E3,2.11E2,1.45E2,1.0536E4,2E0,1.276E3,1.7E1,1.94E2,1.2E1,1.33E2,4.182E3,6.354E3,2.41E2,1.035E3,1.6E1,1E0,4.5E1,1.49E2,1E1,2E0,3.9E1,9.4E1,1.821E3,2.361E3,1.545E3,4.809E3,1.13E2,1.28E2,4.26E2,6.09E2,1E0,1.5E1,3.7E1,8E0,1.4E1,1.35E2,1E0,1E0,2.2E1,1.7E1,4.7E1,4.7E1,2.99E2,1.522E3,1.115E3,1.246E3,7.54E2,7.91E2,1.706E3,3.103E3,3.5E1,7.8E1,5.8E1,7E1,3.2E1,3.94E2,4.35E2,1.74E2,1E0,3.6E1,6E0,2E0,8E0,6E0,1.8E1,1.17E2,6E0,1.6E1,8E0,9E0,4.4E1,3E0,3E0,4.4E1,8.8E1,2.11E2,4.33E2,1.089E3,5.13E2,6.02E2,5.4E1,1.192E3,2.65E2,4.89E2,3.65E2,4.26E2,1.214E3,4.92E2,2.983E3,1.2E2],"tree_param":{"num_deleted":"0","num_feature":"5","num_nodes":"93","size_leaf_vector":"1"}},{"base_weights":[1.5864843E-1,3.6969406E1,-6.476798E0,5.0619043E2,3.390251E1,-1.7203451E1,5.388798E-1,7.161474E1,6.9021255E1,1.0564772E1,5.2426502E1,-2.2285416E1,3.2960095E0,6.997122E1,-9.973223E-1,3.1253656E1,-6.999171E0,3.8714058E1,5.438438E-1,2.7179556E2,4.625027E1,-2.3548596E0,-2.6370605E1,-4.6346717E0,6.1720142E1,5.867763E2,3.2796288E1,-1.8429762E0,4.827375E1,-2.8269709E1,5.279647E1,2.1640848E1,-5.3101146E-1,4.5472678E2,2.1225717E2,4.115759E1,1.4896185E2,-2.2990597E1,2.0306757E1,-2.7180979E1,3.4622276E1,1.9116413E1,-1.586536E1,1.779494E1,1.4636917E2,6.510982E1,3.610103E0,7.878457E1,-5.2755352E1,-1.3919121E0,-8.095051E1,2.6760548E1,7.564603E2,6.172457E0,-4.707253E0,4.1564183E0,1.50329895E1,-1.5004878E0,1.644385E0,1.666863E1,6.872051E1,1.436011E1,4.306988E1,2.7269983E0,8.544177E0,2.8535223E1,8.841987E0,-4.2601175E0,-1.0008578E0,5.566873E-1,4.8123856E0,-3.4651432E0,-2.0134728E0,2.4637854E1,2.1532714E0,-7.380106E-2,5.8577E0,-2.680576E0,8.121298E-1,2.269068E1,7.5547755E-1,1.7626776E1,-1.7552369E0,4.9327824E-1,2.161316E1,-6.94443E0,-1.0840956E0,8.4095967E-1,-4.8784572E-1,-8.596625E0,4.2284355E0,-7.0397466E-1,9.986242E0,1.1666052E2,-3.1914728E0],"categories":[],"categories_nodes":[],"categories_segments":[],"categories_sizes":[],"default_left":[0,0,0,0,0,0,0,0,0,0,0,0,0,0,0,0,0,0,0,0,0,0,0,0,0,0,0,0,0,0,0,0,0,0,0,0,0,0,0,0,0,0,0,0,0,0,0,0,0,0,0,0,0,0,0,0,0,0,0,0,0,0,0,0,0,0,0,0,0,0,0,0,0,0,0,0,0,0,0,0,0,0,0,0,0,0,0,0,0,0,0,0,0,0,0],"id":4,"left_children":[1,3,5,7,9,11,13,-1,15,17,19,21,23,25,27,-1,-1,29,31,33,35,37,39,41,43,45,47,49,51,53,55,-1,57,59,61,63,65,67,69,71,73,75,77,79,81,-1,-1,83,85,87,89,91,93,-1,-1,-1,-1,-1,-1,-1,-1,-1,-1,-1,-1,-1,-1,-1,-1,-1,-1,-1,-1,-1,-1,-1,-1,-1,-1,-1,-1,-1,-1,-1,-1,-1,-1,-1,-1,-1,-1,-1,-1,-1,-1],"loss_changes":[2.9730772E6,2.6580358E6,7.761115E5,1.052011E6,7.983515E5,4.249095E5,6.6521475E5,0E0,1.9113389E5,2.3100408E5,1.3829492E6,2.6601862E5,3.760574E5,2.5744028E6,2.5433658E5,0E0,0E0,2.0430053E5,1.4048898E5,2.0844088E5,5.185155E5,2.6094186E5,1.3498738E5,1.9102312E5,3.5806325E5,2.9527825E5,5.0382162E5,2.1398272E5,1.548999E6,6.720709E4,1.8875484E5,0E0,1.4839894E5,2.872315E5,2.8309012E5,5.862264E5,3.6286438E5,7.391239E4,1.0879764E5,1.40216E5,9.4479516E4,1.8024066E5,1.2775558E5,1.3747288E5,1.6482756E5,0E0,0E0,8.408297E5,3.0724984E4,2.039537E5,2.4650875E4,2.5026034E5,1.0072759E6,0E0,0E0,0E0,0E0,0E0,0E0,0E0,0E0,0E0,0E0,0E0,0E0,0E0,0E0,0E0,0E0,0E0,0E0,0E0,0E0,0E0,0E0,0E0,0E0,0E0,0E0,0E0,0E0,0E0,0E0,0E0,0E0,0E0,0E0,0E0,0E0,0E0,0E0,0E0,0E0,0E0,0E0],"parents":[2147483647,0,0,1,1,2,2,3,3,4,4,5,5,6,6,8,8,9,9,10,10,11,11,12,12,13,13,14,14,17,17,18,18,19,19,20,20,21,21,22,22,23,23,24,24,25,25,26,26,27,27,28,28,29,29,30,30,32,32,33,33,34,34,35,35,36,36,37,37,38,38,39,39,40,40,41,41,42,42,43,43,44,44,47,47,48,48,49,49,50,50,51,51,52,52],"right_children":[2,4,6,8,10,12,14,-1,16,18,20,22,24,26,28,-1,-1,30,32,34,36,38,40,42,44,46,48,50,52,54,56,-1,58,60,62,64,66,68,70,72,74,76,78,80,82,-1,-1,84,86,88,90,92,94,-1,-1,-1,-1,-1,-1,-1,-1,-1,-1,-1,-1,-1,-1,-1,-1,-1,-1,-1,-1,-1,-1,-1,-1,-1,-1,-1,-1,-1,-1,-1,-1,-1,-1,-1,-1,-1,-1,-1,-1,-1,-1],"split_conditions":[-8.185429E-1,-2.6750034E-1,1.5727727E-1,9E0,-6.246208E-1,4.09E2,-2.6758066E-1,7.161474E1,-6.347329E-1,-9.5420384E-1,-9.706476E-1,-5.7188666E-1,1.0724882E0,-7.075476E-1,2.661558E0,3.1253656E1,-6.999171E0,-6.488235E-1,-2.7827094E0,-3.327205E-1,-4.839779E-2,-4.897654E-1,3.8794857E-1,-6.1299604E-1,7.359652E-2,-3.789469E-1,8.6525387E-1,6.73635E0,6.31E2,-2.4806418E-1,1.1372728E0,2.1640848E1,8.54E2,-1.8895249E-1,-5.4828286E-1,8.3314605E-2,1.1206938E-1,-2.520799E-1,9.3E1,6.3829765E-2,4.489878E-1,-5.42398E-1,4.8864838E-2,1.1053756E0,7.3719513E-1,6.510982E1,3.610103E0,5.956195E-1,2.661558E0,-5.677757E-1,2.190663E0,3.4E1,1.9274764E-1,6.172457E0,-4.707253E0,4.1564183E0,1.50329895E1,-1.5004878E0,1.644385E0,1.666863E1,6.872051E1,1.436011E1,4.306988E1,2.7269983E0,8.544177E0,2.8535223E1,8.841987E0,-4.2601175E0,-1.0008578E0,5.566873E-1,4.8123856E0,-3.4651432E0,-2.0134728E0,2.4637854E1,2.1532714E0,-7.380106E-2,5.8577E0,-2.680576E0,8.121298E-1,2.269068E1,7.5547755E-1,1.7626776E1,-1.7552369E0,4.9327824E-1,2.161316E1,-6.94443E0,-1.0840956E0,8.4095967E-1,-4.8784572E-1,-8.596625E0,4.2284355E0,-7.0397466E-1,9.986242E0,1.1666052E2,-3.1914728E0],"split_indices":[1,3,2,4,0,4,3,0,0,1,1,1,1,1,0,0,0,0,2,2,0,0,3,1,3,0,0,3,4,3,2,0,4,3,0,3,0,3,4,0,3,0,1,1,0,0,0,1,0,1,1,4,1,0,0,0,0,0,0,0,0,0,0,0,0,0,0,0,0,0,0,0,0,0,0,0,0,0,0,0,0,0,0,0,0,0,0,0,0,0,0,0,0,0,0],"split_type":[0,0,0,0,0,0,0,0,0,0,0,0,0,0,0,0,0,0,0,0,0,0,0,0,0,0,0,0,0,0,0,0,0,0,0,0,0,0,0,0,0,0,0,0,0,0,0,0,0,0,0,0,0,0,0,0,0,0,0,0,0,0,0,0,0,0,0,0,0,0,0,0,0,0,0,0,0,0,0,0,0,0,0,0,0,0,0,0,0,0,0,0,0,0,0],"sum_hessian":[1.217E4,1.858E3,1.0312E4,1.1E1,1.847E3,4.077E3,6.235E3,7E0,4E0,8.18E2,1.029E3,3.267E3,8.1E2,1.34E2,6.101E3,1E0,3E0,2.14E2,6.04E2,2.7E1,1.002E3,5.56E2,2.711E3,7.14E2,9.6E1,8E0,1.26E2,5.999E3,1.02E2,3.7E1,1.77E2,2E0,6.02E2,5E0,2.2E1,9.56E2,4.6E1,2.91E2,2.65E2,2.676E3,3.5E1,2.29E2,4.85E2,6.4E1,3.2E1,7E0,1E0,8.2E1,4.4E1,5.966E3,3.3E1,1E2,2E0,6E0,3.1E1,1.6E2,1.7E1,3.25E2,2.77E2,3E0,2E0,1.8E1,4E0,7.29E2,2.27E2,1.3E1,3.3E1,1.15E2,1.76E2,1.74E2,9.1E1,1.297E3,1.379E3,1E0,3.4E1,1.53E2,7.6E1,3.33E2,1.52E2,2E0,6.2E1,2.7E1,5E0,5.4E1,2.8E1,3.1E1,1.3E1,1.565E3,4.401E3,3.2E1,1E0,6.9E1,3.1E1,1E0,1E0],"tree_param":{"num_deleted":"0","num_feature":"5","num_nodes":"95","size_leaf_vector":"1"}},{"base_weights":[1.9174777E-1,3.9182987E1,-5.0565314E0,2.588355E1,9.691503E1,7.8370094E1,-6.214976E0,4.5249195E1,2.4770414E1,2.1363107E2,7.687692E1,5.483882E2,2.8678877E1,-1.5825085E1,1.094286E-1,6.2364864E1,1.5134217E1,2.7597544E1,2.3410355E2,6.223692E1,2.3772345E2,6.433663E1,-1.4320328E1,1.1270649E2,-7.003054E0,-2.374848E1,-5.410369E0,1.0174932E1,-3.1843784E0,3.453966E1,1.3955052E2,4.6981305E-1,3.5092915E1,5.3749456E0,-7.75355E0,2.863954E2,1.2357926E2,-8.757163E1,7.156996E1,6.358214E2,1.23341255E2,3.4295976E0,-5.5776467E0,-8.438096E0,2.6124088E2,-5.8340664E1,1.7588776E1,-8.594635E0,-2.7258543E1,-9.541534E0,2.4295126E1,2.2761023E1,-1.7547601E0,-1.52606945E1,3.4578435E0,-2.5275643E0,4.7914596E0,8.7450075E0,2.8712996E1,8.659534E-1,-4.11282E0,2.2477865E-1,6.826009E0,-1.375927E0,2.1289444E-1,1.801611E1,3.3104294E1,-5.747068E0,2.1043154E1,-2.7711742E0,-1.11096945E1,5.4157615E0,1.3286527E1,2.4267529E1,9.076299E1,2.2866049E1,-1.0560547E0,1.0696714E1,-5.546154E0,4.687418E1,2.060069E1,-2.5332744E0,-9.186027E0,5.9351273E0,-5.1605268E0,-2.835018E0,1.2372857E0,-3.5694273E0,-2.0801404E0,3.8441437E-1,-1.6609881E0,3.140514E-1,1.3350673E1,-5.2290887E-1,3.8008118E0,1.4113725E0,-1.5362692E0,-2.50519E0,8.900715E-1,8.7191485E-2,6.7201257E0],"categories":[],"categories_nodes":[],"categories_segments":[],"categories_sizes":[],"default_left":[0,0,0,0,0,0,0,0,0,0,0,0,0,0,0,0,0,0,0,0,0,0,0,0,0,0,0,0,0,0,0,0,0,0,0,0,0,0,0,0,0,0,0,0,0,0,0,0,0,0,0,0,0,0,0,0,0,0,0,0,0,0,0,0,0,0,0,0,0,0,0,0,0,0,0,0,0,0,0,0,0,0,0,0,0,0,0,0,0,0,0,0,0,0,0,0,0,0,0,0,0],"id":5,"left_children":[1,3,5,7,9,11,13,-1,15,17,19,21,23,25,27,29,31,33,35,37,39,-1,41,43,45,47,49,51,53,55,57,59,61,-1,63,65,67,69,71,73,75,-1,-1,77,79,81,83,85,87,89,91,93,95,97,99,-1,-1,-1,-1,-1,-1,-1,-1,-1,-1,-1,-1,-1,-1,-1,-1,-1,-1,-1,-1,-1,-1,-1,-1,-1,-1,-1,-1,-1,-1,-1,-1,-1,-1,-1,-1,-1,-1,-1,-1,-1,-1,-1,-1,-1,-1],"loss_changes":[2.4908338E6,1.1061998E6,1.03729575E6,5.467676E5,6.1504425E5,3.4175712E6,6.4315675E5,0E0,4.23996E5,1.420735E5,5.315169E5,7.57443E5,4.0255712E5,3.4645525E5,2.1165325E5,5.0848175E5,2.7364156E5,5.039242E3,1.6689062E5,3.054757E5,7.86748E5,0E0,7.9592407E3,7.219699E5,1.2096228E5,1.26626125E5,2.2308833E5,2.3637317E5,3.8588003E5,1.4281561E5,4.5929462E5,1.8432125E5,4.3124097E5,0E0,2.0734721E2,4.945025E4,2.1651345E5,1.5228203E4,2.0839812E5,2.071825E5,2.2805378E5,0E0,0E0,1.3074787E5,1.09735625E5,3.1971727E4,1.9089438E5,1.8675169E5,1.0471275E5,1.5097412E5,5.1247378E5,3.27103E5,1.7491006E5,4.040468E5,5.115921E5,0E0,0E0,0E0,0E0,0E0,0E0,0E0,0E0,0E0,0E0,0E0,0E0,0E0,0E0,0E0,0E0,0E0,0E0,0E0,0E0,0E0,0E0,0E0,0E0,0E0,0E0,0E0,0E0,0E0,0E0,0E0,0E0,0E0,0E0,0E0,0E0,0E0,0E0,0E0,0E0,0E0,0E0,0E0,0E0,0E0,0E0],"parents":[2147483647,0,0,1,1,2,2,3,3,4,4,5,5,6,6,8,8,9,9,10,10,11,11,12,12,13,13,14,14,15,15,16,16,17,17,18,18,19,19,20,20,22,22,23,23,24,24,25,25,26,26,27,27,28,28,29,29,30,30,31,31,32,32,34,34,35,35,36,36,37,37,38,38,39,39,40,40,43,43,44,44,45,45,46,46,47,47,48,48,49,49,50,50,51,51,52,52,53,53,54,54],"right_children":[2,4,6,8,10,12,14,-1,16,18,20,22,24,26,28,30,32,34,36,38,40,-1,42,44,46,48,50,52,54,56,58,60,62,-1,64,66,68,70,72,74,76,-1,-1,78,80,82,84,86,88,90,92,94,96,98,100,-1,-1,-1,-1,-1,-1,-1,-1,-1,-1,-1,-1,-1,-1,-1,-1,-1,-1,-1,-1,-1,-1,-1,-1,-1,-1,-1,-1,-1,-1,-1,-1,-1,-1,-1,-1,-1,-1,-1,-1,-1,-1,-1,-1,-1,-1],"split_conditions":[-8.5554135E-1,-5.659376E-1,-2.6758066E-1,-2.6750034E-1,-9.3776006E-1,-7.075476E-1,1.5727727E-1,4.5249195E1,-9.583148E-1,1.4E1,5.2640166E-2,-3.789469E-1,-5.297105E-3,1.31E2,-6.212179E-1,-6.2578124E-1,8.29E2,-5.181124E-1,3.71E2,-1.312716E0,2.4841675E-1,6.433663E1,-2.6240927E-1,1.597734E-2,2E0,-5.225554E-1,1.0437117E0,6.4727503E-1,-3.6982945E-1,-6.488235E-1,2.178E3,-8.719851E-1,-6.3150036E-1,5.3749456E0,-3.3650932E-1,-5.2565503E-1,-1.6429585E-1,-8.9665073E-1,5.56E2,-8.8020694E-1,-8.8842887E-1,3.4295976E0,-5.5776467E0,-6.5821636E-1,3.3663043E-1,1E0,1.2E1,-3.9593852E-1,8.960729E-2,-5.842195E-1,1.533491E-1,-6.001695E-1,-2.3497286E-1,-6.2130466E-2,2.7291958E0,-2.5275643E0,4.7914596E0,8.7450075E0,2.8712996E1,8.659534E-1,-4.11282E0,2.2477865E-1,6.826009E0,-1.375927E0,2.1289444E-1,1.801611E1,3.3104294E1,-5.747068E0,2.1043154E1,-2.7711742E0,-1.11096945E1,5.4157615E0,1.3286527E1,2.4267529E1,9.076299E1,2.2866049E1,-1.0560547E0,1.0696714E1,-5.546154E0,4.687418E1,2.060069E1,-2.5332744E0,-9.186027E0,5.9351273E0,-5.1605268E0,-2.835018E0,1.2372857E0,-3.5694273E0,-2.0801404E0,3.8441437E-1,-1.6609881E0,3.140514E-1,1.3350673E1,-5.2290887E-1,3.8008118E0,1.4113725E0,-1.5362692E0,-2.50519E0,8.900715E-1,8.7191485E-2,6.7201257E0],"split_indices":[1,0,3,3,1,1,2,0,1,4,0,0,0,4,1,0,4,0,4,2,0,0,0,1,4,1,1,2,0,0,4,1,0,0,0,0,3,1,4,1,1,0,0,1,1,4,4,0,0,1,3,0,3,1,1,0,0,0,0,0,0,0,0,0,0,0,0,0,0,0,0,0,0,0,0,0,0,0,0,0,0,0,0,0,0,0,0,0,0,0,0,0,0,0,0,0,0,0,0,0,0],"split_type":[0,0,0,0,0,0,0,0,0,0,0,0,0,0,0,0,0,0,0,0,0,0,0,0,0,0,0,0,0,0,0,0,0,0,0,0,0,0,0,0,0,0,0,0,0,0,0,0,0,0,0,0,0,0,0,0,0,0,0,0,0,0,0,0,0,0,0,0,0,0,0,0,0,0,0,0,0,0,0,0,0,0,0,0,0,0,0,0,0,0,0,0,0,0,0,0,0,0,0,0,0],"sum_hessian":[1.217E4,1.443E3,1.0727E4,1.174E3,2.69E2,1.46E2,1.0581E4,2E0,1.172E3,3.8E1,2.31E2,1.3E1,1.33E2,4.199E3,6.382E3,2.38E2,9.34E2,4E0,3.4E1,2.13E2,1.8E1,1.1E1,2E0,3.9E1,9.4E1,2.384E3,1.815E3,1.573E3,4.809E3,1.76E2,6.2E1,5.39E2,3.95E2,2E0,2E0,2.2E1,1.2E1,1.2E1,2.01E2,3E0,1.5E1,1E0,1E0,2.2E1,1.7E1,3E1,6.4E1,4.49E2,1.935E3,1.594E3,2.21E2,7.65E2,8.08E2,1.706E3,3.103E3,3.2E1,1.44E2,4.7E1,1.5E1,4.51E2,8.8E1,1.99E2,1.96E2,1E0,1E0,8E0,1.4E1,4E0,8E0,4E0,8E0,1.58E2,4.3E1,2E0,1E0,8E0,7E0,6E0,1.6E1,2E0,1.5E1,1.6E1,1.4E1,4E1,2.4E1,2.31E2,2.18E2,8.37E2,1.098E3,5.51E2,1.043E3,1.86E2,3.5E1,2.7E2,4.95E2,3.73E2,4.35E2,1.214E3,4.92E2,2.983E3,1.2E2],"tree_param":{"num_deleted":"0","num_feature":"5","num_nodes":"101","size_leaf_vector":"1"}},{"base_weights":[2.085951E-1,3.5473183E1,-4.5380745E0,2.337075E1,8.8009796E1,7.137574E1,-5.5922036E0,4.2232582E1,2.233048E1,1.9407896E2,6.979985E1,4.9799142E2,2.6271296E1,-1.4241351E1,9.979255E-2,1.08629524E2,1.8551828E1,3.2345148E2,1.6075513E2,5.6035763E1,2.2115324E2,5.8439106E1,-1.3604309E1,1.0325148E2,-6.4179544E0,-2.3841784E1,-6.86843E0,6.002095E-1,-6.459901E1,7.02347E1,2.9662363E2,-2.3733144E0,3.0189838E1,9.18487E0,3.467438E1,2.5680176E1,1.7850063E2,-4.502073E1,6.784963E1,6.009969E2,1.1237025E2,3.2581177E0,-5.298764E0,-7.3703465E0,2.388654E2,-5.288464E1,1.5841818E1,-2.5378725E1,1.44629545E1,-1.6310501E1,1.7008164E0,-1.6251668E0,1.5403074E1,-7.453924E1,6.586342E1,-8.81308E-1,8.909339E0,4.8810146E1,-1.6879586E0,1.8278176E0,-1.4303187E0,9.364066E-1,7.1034846E0,5.0166163E0,-7.36587E-1,2.274628E1,9.018232E0,3.9966505E0,-8.470055E0,2.6110945E1,6.2348843E0,2.2649694E1,8.6224846E1,2.8076895E1,3.2839932E0,-6.9934626E0,8.095668E0,3.237084E1,1.386202E1,3.1372235E0,-6.3032603E0,6.4133263E0,-3.5962894E0,-2.057004E0,-4.1293845E0,3.5202065E1,-1.6443243E0,-2.846011E-1,-2.6451426E0,-3.1363282E-1,5.2743816E0,-4.935177E-3,-2.2191036E0,1.270708E0,7.5256615E1,-9.348704E0,-4.961949E0,-4.8419127E0,1.2009731E1],"categories":[],"categories_nodes":[],"categories_segments":[],"categories_sizes":[],"default_left":[0,0,0,0,0,0,0,0,0,0,0,0,0,0,0,0,0,0,0,0,0,0,0,0,0,0,0,0,0,0,0,0,0,0,0,0,0,0,0,0,0,0,0,0,0,0,0,0,0,0,0,0,0,0,0,0,0,0,0,0,0,0,0,0,0,0,0,0,0,0,0,0,0,0,0,0,0,0,0,0,0,0,0,0,0,0,0,0,0,0,0,0,0,0,0,0,0,0,0],"id":6,"left_children":[1,3,5,7,9,11,13,-1,15,17,19,21,23,25,27,29,31,33,35,37,39,-1,41,43,45,47,49,51,53,55,57,59,61,-1,-1,63,65,67,69,71,73,-1,-1,75,77,79,81,83,85,87,89,91,93,95,97,-1,-1,-1,-1,-1,-1,-1,-1,-1,-1,-1,-1,-1,-1,-1,-1,-1,-1,-1,-1,-1,-1,-1,-1,-1,-1,-1,-1,-1,-1,-1,-1,-1,-1,-1,-1,-1,-1,-1,-1,-1,-1,-1,-1],"loss_changes":[2.0374566E6,9.1606825E5,8.588854E5,4.7821844E5,5.0796225E5,2.8155295E6,5.209629E5,0E0,3.8049312E5,1.1613975E5,4.709195E5,6.26774E5,3.3786356E5,2.9712588E5,2.0669716E5,3.3284862E5,2.740395E5,5.914E3,7.451619E4,2.585425E5,7.175558E5,0E0,7.183215E3,6.018349E5,9.909988E4,1.0774994E5,1.9235419E5,2.0871223E5,6.845394E4,6.3396156E4,4.884703E5,9.95484E4,6.143393E5,0E0,0E0,4.415343E3,1.0489025E5,8.094758E4,1.8783175E5,1.9605812E5,2.0506442E5,0E0,0E0,1.3276234E5,1.0821925E5,2.848357E4,1.6491848E5,1.333855E5,7.4650475E5,1.5435419E5,3.0805272E5,1.7850219E5,1.6359946E6,1.708125E4,3.0606955E4,0E0,0E0,0E0,0E0,0E0,0E0,0E0,0E0,0E0,0E0,0E0,0E0,0E0,0E0,0E0,0E0,0E0,0E0,0E0,0E0,0E0,0E0,0E0,0E0,0E0,0E0,0E0,0E0,0E0,0E0,0E0,0E0,0E0,0E0,0E0,0E0,0E0,0E0,0E0,0E0,0E0,0E0,0E0,0E0],"parents":[2147483647,0,0,1,1,2,2,3,3,4,4,5,5,6,6,8,8,9,9,10,10,11,11,12,12,13,13,14,14,15,15,16,16,17,17,18,18,19,19,20,20,22,22,23,23,24,24,25,25,26,26,27,27,28,28,29,29,30,30,31,31,32,32,35,35,36,36,37,37,38,38,39,39,40,40,43,43,44,44,45,45,46,46,47,47,48,48,49,49,50,50,51,51,52,52,53,53,54,54],"right_children":[2,4,6,8,10,12,14,-1,16,18,20,22,24,26,28,30,32,34,36,38,40,-1,42,44,46,48,50,52,54,56,58,60,62,-1,-1,64,66,68,70,72,74,-1,-1,76,78,80,82,84,86,88,90,92,94,96,98,-1,-1,-1,-1,-1,-1,-1,-1,-1,-1,-1,-1,-1,-1,-1,-1,-1,-1,-1,-1,-1,-1,-1,-1,-1,-1,-1,-1,-1,-1,-1,-1,-1,-1,-1,-1,-1,-1,-1,-1,-1,-1,-1,-1],"split_conditions":[-8.5554135E-1,-5.659376E-1,-2.6758066E-1,-2.6750034E-1,-9.3776006E-1,-7.075476E-1,1.5727727E-1,4.2232582E1,-9.747585E-1,-9.706476E-1,5.2640166E-2,-3.789469E-1,-5.297105E-3,6.9E1,5.530343E0,-6.19399E-1,-6.3556176E-1,-3.327205E-1,1.4E1,-8.2271826E-1,2.4841675E-1,5.8439106E1,-2.6240927E-1,1.597734E-2,2E0,-5.659374E-2,-4.001657E-1,1.2515861E-1,1.8617882E0,-6.488235E-1,-1.291983E-1,5.15E2,1.149E3,9.18487E0,3.467438E1,-5.181124E-1,3.71E2,-8.9665073E-1,-2.6750034E-1,-8.8020694E-1,-9.2542726E-1,3.2581177E0,-5.298764E0,-3.5076568E-1,4E0,-2.7827094E0,8.6525387E-1,9.327163E-1,-8.2271826E-1,-6.335507E-1,1.7137944E0,-3.9406374E-2,5.755441E0,-5.677757E-1,-5.788678E-1,-8.81308E-1,8.909339E0,4.8810146E1,-1.6879586E0,1.8278176E0,-1.4303187E0,9.364066E-1,7.1034846E0,5.0166163E0,-7.36587E-1,2.274628E1,9.018232E0,3.9966505E0,-8.470055E0,2.6110945E1,6.2348843E0,2.2649694E1,8.6224846E1,2.8076895E1,3.2839932E0,-6.9934626E0,8.095668E0,3.237084E1,1.386202E1,3.1372235E0,-6.3032603E0,6.4133263E0,-3.5962894E0,-2.057004E0,-4.1293845E0,3.5202065E1,-1.6443243E0,-2.846011E-1,-2.6451426E0,-3.1363282E-1,5.2743816E0,-4.935177E-3,-2.2191036E0,1.270708E0,7.5256615E1,-9.348704E0,-4.961949E0,-4.8419127E0,1.2009731E1],"split_indices":[1,0,3,3,1,1,2,0,1,1,0,0,0,4,3,0,0,2,4,2,0,0,0,1,4,3,0,3,1,0,3,4,4,0,0,0,4,1,3,1,1,0,0,0,4,2,0,1,2,1,1,3,0,1,0,0,0,0,0,0,0,0,0,0,0,0,0,0,0,0,0,0,0,0,0,0,0,0,0,0,0,0,0,0,0,0,0,0,0,0,0,0,0,0,0,0,0,0,0],"split_type":[0,0,0,0,0,0,0,0,0,0,0,0,0,0,0,0,0,0,0,0,0,0,0,0,0,0,0,0,0,0,0,0,0,0,0,0,0,0,0,0,0,0,0,0,0,0,0,0,0,0,0,0,0,0,0,0,0,0,0,0,0,0,0,0,0,0,0,0,0,0,0,0,0,0,0,0,0,0,0,0,0,0,0,0,0,0,0,0,0,0,0,0,0,0,0,0,0,0,0],"sum_hessian":[1.217E4,1.443E3,1.0727E4,1.174E3,2.69E2,1.46E2,1.0581E4,2E0,1.172E3,3.8E1,2.31E2,1.3E1,1.33E2,4.199E3,6.382E3,4.8E1,1.124E3,6E0,3.2E1,2.13E2,1.8E1,1.1E1,2E0,3.9E1,9.4E1,1.823E3,2.376E3,6.334E3,4.8E1,4.1E1,7E0,4.02E2,7.22E2,1E0,5E0,4E0,2.8E1,2.2E1,1.91E2,3E0,1.5E1,1E0,1E0,2.2E1,1.7E1,3E1,6.4E1,1.753E3,7E1,1.13E3,1.246E3,5.507E3,8.27E2,4.5E1,3E0,8E0,3.3E1,4E0,3E0,1.47E2,2.55E2,4.79E2,2.43E2,2E0,2E0,1.7E1,1.1E1,7E0,1.5E1,4E0,1.87E2,2E0,1E0,4E0,1.1E1,1.3E1,9E0,8E0,9E0,3E0,2.7E1,3.3E1,3.1E1,1.348E3,4.05E2,5E0,6.5E1,4.86E2,6.44E2,1.139E3,1.07E2,5.116E3,3.91E2,8.25E2,2E0,2.4E1,2.1E1,1E0,2E0],"tree_param":{"num_deleted":"0","num_feature":"5","num_nodes":"99","size_leaf_vector":"1"}},{"base_weights":[2.3323299E-1,3.575557E1,-3.666213E0,1.2999017E1,5.7674202E1,6.93518E1,-4.66455E0,3.9417076E1,1.1038823E1,1.9091353E2,5.0007126E1,5.7617126E1,3.2391037E1,-1.2948236E1,7.514463E-1,1.5514036E1,-3.459709E1,2.9799667E2,1.15532845E2,4.5947044E1,1.7444481E2,1.12254196E2,-5.779838E0,-1.7241932E1,3.0289304E0,1.0781247E1,-2.8665278E0,2.8755432E1,4.8418117E-1,-4.080833E1,1.441937E1,1.3504126E2,6.3088604E1,6.930665E1,3.6978783E1,3.4386364E1,8.88892E1,2.1047012E2,-4.2613525E0,4.0556664E1,2.1754735E2,-4.769831E1,1.430097E1,-4.132556E1,-1.5081594E1,-2.60504E0,5.0102345E1,8.647038E-1,2.791555E1,-1.308972E1,3.6575198E0,-1.618688E0,4.178469E0,-7.92971E-1,4.829777E0,8.443758E0,-5.0199666E0,1.7373676E1,-1.0660912E1,2.747682E1,4.2627225E0,-5.1990743E0,3.8140519E0,1.0272613E1,-1.4717691E1,2.3905996E1,1.6424112E0,-2.1083436E0,2.3102448E0,1.6528524E1,-4.987272E0,4.159118E1,1.667573E1,4.515238E0,-5.565879E0,5.1942606E0,-4.800335E0,-4.531649E0,2.4238419E1,-1.6079228E0,3.9362748E0,-3.8609414E0,9.016086E-2,9.14603E0,-1.3749505E0,-6.548502E-1,2.847757E0,1.0505055E1,2.1864574E0,-2.1966097E0,9.460878E-1,1.20240234E-1,6.674311E0],"categories":[],"categories_nodes":[],"categories_segments":[],"categories_sizes":[],"default_left":[0,0,0,0,0,0,0,0,0,0,0,0,0,0,0,0,0,0,0,0,0,0,0,0,0,0,0,0,0,0,0,0,0,0,0,0,0,0,0,0,0,0,0,0,0,0,0,0,0,0,0,0,0,0,0,0,0,0,0,0,0,0,0,0,0,0,0,0,0,0,0,0,0,0,0,0,0,0,0,0,0,0,0,0,0,0,0,0,0,0,0,0,0],"id":7,"left_children":[1,3,5,7,9,11,13,-1,15,17,19,-1,21,23,25,27,29,31,33,35,37,39,41,43,45,47,49,51,53,55,-1,57,-1,59,-1,61,63,65,67,69,71,73,75,77,79,81,83,85,87,89,91,-1,-1,-1,-1,-1,-1,-1,-1,-1,-1,-1,-1,-1,-1,-1,-1,-1,-1,-1,-1,-1,-1,-1,-1,-1,-1,-1,-1,-1,-1,-1,-1,-1,-1,-1,-1,-1,-1,-1,-1,-1,-1],"loss_changes":[1.6860266E6,5.997964E5,7.998529E5,4.379737E5,6.166671E5,2.7537375E6,4.8548756E5,0E0,1.2103271E5,2.3194762E5,2.855215E5,0E0,4.243829E5,2.9352775E5,2.3749669E5,1.07056836E5,6.474147E4,6.20004E5,2.2118925E5,2.7693588E5,1.1677994E5,3.308937E5,8.064904E4,1.7481775E5,2.4067619E5,2.9477497E5,3.2085844E5,1.6814789E5,1.0216447E5,6.5402492E4,0E0,1.1202972E5,0E0,9.243772E4,0E0,1.4660881E5,4.038242E5,7.928981E4,2.3283435E3,3.2405878E5,1.119925E5,2.542632E4,1.5493377E5,3.2462125E5,1.6879356E5,1.02427375E5,2.5741344E5,2.2535633E5,2.9455103E5,3.7532194E5,4.5480975E5,0E0,0E0,0E0,0E0,0E0,0E0,0E0,0E0,0E0,0E0,0E0,0E0,0E0,0E0,0E0,0E0,0E0,0E0,0E0,0E0,0E0,0E0,0E0,0E0,0E0,0E0,0E0,0E0,0E0,0E0,0E0,0E0,0E0,0E0,0E0,0E0,0E0,0E0,0E0,0E0,0E0,0E0],"parents":[2147483647,0,0,1,1,2,2,3,3,4,4,5,5,6,6,8,8,9,9,10,10,12,12,13,13,14,14,15,15,16,16,17,17,18,18,19,19,20,20,21,21,22,22,23,23,24,24,25,25,26,26,27,27,28,28,29,29,31,31,33,33,35,35,36,36,37,37,38,38,39,39,40,40,41,41,42,42,43,43,44,44,45,45,46,46,47,47,48,48,49,49,50,50],"right_children":[2,4,6,8,10,12,14,-1,16,18,20,-1,22,24,26,28,30,32,34,36,38,40,42,44,46,48,50,52,54,56,-1,58,-1,60,-1,62,64,66,68,70,72,74,76,78,80,82,84,86,88,90,92,-1,-1,-1,-1,-1,-1,-1,-1,-1,-1,-1,-1,-1,-1,-1,-1,-1,-1,-1,-1,-1,-1,-1,-1,-1,-1,-1,-1,-1,-1,-1,-1,-1,-1,-1,-1,-1,-1,-1,-1,-1,-1],"split_conditions":[-8.76096E-1,-6.271903E-1,-2.6758066E-1,-2.6750034E-1,-9.706476E-1,-7.897664E-1,1.5727727E-1,3.9417076E1,9.4003236E-1,3.4E2,1.7082097E-2,5.7617126E1,-5.297105E-3,4.09E2,-6.212179E-1,-9.3776006E-1,1.16147E5,-1.9682334E-1,4.945E3,1.487E3,-8.8020694E-1,1.597734E-2,2E0,-1.8027138E0,1.0724882E0,-5.3319764E-1,-3.3650932E-1,1.5727727E-1,2.632E3,4.09E2,1.441937E1,-2.1079811E-1,6.3088604E1,-2.5722006E-1,3.6978783E1,1.3E1,8.287E3,7.359652E-2,-7.177323E-2,-6.5821636E-1,3.3663043E-1,2.6242447E-1,1.2E1,-2.1987368E-1,2.661558E0,-6.2147117E-1,4.7552422E-1,1.244E3,-8.514304E-1,-3.7464842E-2,2.7291958E0,-1.618688E0,4.178469E0,-7.92971E-1,4.829777E0,8.443758E0,-5.0199666E0,1.7373676E1,-1.0660912E1,2.747682E1,4.2627225E0,-5.1990743E0,3.8140519E0,1.0272613E1,-1.4717691E1,2.3905996E1,1.6424112E0,-2.1083436E0,2.3102448E0,1.6528524E1,-4.987272E0,4.159118E1,1.667573E1,4.515238E0,-5.565879E0,5.1942606E0,-4.800335E0,-4.531649E0,2.4238419E1,-1.6079228E0,3.9362748E0,-3.8609414E0,9.016086E-2,9.14603E0,-1.3749505E0,-6.548502E-1,2.847757E0,1.0505055E1,2.1864574E0,-2.1966097E0,9.460878E-1,1.20240234E-1,6.674311E0],"split_indices":[1,0,3,3,1,1,2,0,3,4,0,0,0,4,1,1,4,3,4,4,1,1,4,2,1,0,0,2,4,4,0,3,0,3,0,4,4,3,3,1,1,0,4,3,0,0,0,4,1,1,1,0,0,0,0,0,0,0,0,0,0,0,0,0,0,0,0,0,0,0,0,0,0,0,0,0,0,0,0,0,0,0,0,0,0,0,0,0,0,0,0,0,0],"split_type":[0,0,0,0,0,0,0,0,0,0,0,0,0,0,0,0,0,0,0,0,0,0,0,0,0,0,0,0,0,0,0,0,0,0,0,0,0,0,0,0,0,0,0,0,0,0,0,0,0,0,0,0,0,0,0,0,0,0,0,0,0,0,0,0,0,0,0,0,0,0,0,0,0,0,0,0,0,0,0,0,0,0,0,0,0,0,0,0,0,0,0,0,0],"sum_hessian":[1.217E4,1.203E3,1.0967E4,5.91E2,6.12E2,1.47E2,1.082E4,2E0,5.89E2,3.2E1,5.8E2,9E0,1.38E2,4.277E3,6.543E3,5.37E2,5.2E1,1.2E1,2E1,5.63E2,1.7E1,4.4E1,9.4E1,3.371E3,9.06E2,1.734E3,4.809E3,2.85E2,2.52E2,5.1E1,1E0,9E0,3E0,1.8E1,2E0,4.45E2,1.18E2,1.4E1,3E0,2.7E1,1.7E1,3E1,6.4E1,2.76E2,3.095E3,8.1E2,9.6E1,1.099E3,6.35E2,1.873E3,2.936E3,6.4E1,2.21E2,2.15E2,3.7E1,3E0,4.8E1,8E0,1E0,1E0,1.7E1,1.8E1,4.27E2,1.12E2,6E0,1.2E1,2E0,2E0,1E0,1.1E1,1.6E1,2E0,1.5E1,2E0,2.8E1,4E1,2.4E1,2.73E2,3E0,3.04E3,5.5E1,7.1E1,7.39E2,5.8E1,3.8E1,8.67E2,2.32E2,4.5E1,5.9E2,1.344E3,5.29E2,2.827E3,1.09E2],"tree_param":{"num_deleted":"0","num_feature":"5","num_nodes":"93","size_leaf_vector":"1"}},{"base_weights":[2.4240705E-1,1.5096652E1,-7.4477506E0,2.386327E2,1.3466485E1,-2.3133827E1,-4.6626782E0,4.8110815E2,7.293068E1,5.053077E1,9.459685E0,-1.7707426E1,-5.964852E1,-7.163721E0,2.475438E1,5.3453777E1,-5.330889E0,2.644128E2,-1.4342416E1,2.3614855E1,1.0930202E2,1.0511324E1,-9.277052E1,-2.5901285E1,7.9355454E0,-6.7451195E1,-1.1596048E1,-2.162979E1,-3.0312073E0,5.6351696E1,-1.3030759E1,4.3758892E1,-5.462627E0,8.8395775E1,-5.0397903E1,-2.8849953E1,3.233325E1,2.7071616E2,8.993635E1,6.929957E-1,2.0218006E1,-9.9422745E1,-1.1370949E1,-1.7307663E1,-3.6123585E1,4.4840656E1,-2.7072594E1,-8.2583405E1,-5.0117268E1,-7.270991E1,1.4250604E1,8.8422646E1,-2.2488235E1,-9.635961E0,3.4834929E0,1.9353767E1,1.4729477E2,-2.696061E1,1.8715465E2,2.127062E1,-2.3943107E0,-1.0193185E1,-2.7620153E0,3.4969978E0,-4.344721E0,2.2835784E0,1.1233821E1,3.942132E1,-5.721765E-1,1.0259073E1,-1.1815071E1,-4.0841746E0,4.0192804E-1,1.5396795E0,5.6685257E0,-1.7541565E0,-1.0385368E1,-5.36343E0,2.0594935E0,-2.401453E0,1.5826118E0,-1.08010046E-1,-4.552173E0,-5.0900044E0,7.173759E0,-6.3384204E0,2.2443998E-1,-6.769098E0,-9.146606E0,9.9689335E-1,-6.533053E0,-9.081917E-1,-8.180093E0,8.982504E0,-3.5137727E0,2.904014E1,1.1271652E0,-3.0746584E0,-1.2657372E0,-2.5321271E0,4.4184502E-2,1.2133286E1,-1.6657731E-1,4.162134E0,-6.7059517E0,1.0777833E1,2.862007E1,-3.9996579E0,1.0406217E1,3.1182764E1,2.3503213E0],"categories":[],"categories_nodes":[],"categories_segments":[],"categories_sizes":[],"default_left":[0,0,0,0,0,0,0,0,0,0,0,0,0,0,0,0,0,0,0,0,0,0,0,0,0,0,0,0,0,0,0,0,0,0,0,0,0,0,0,0,0,0,0,0,0,0,0,0,0,0,0,0,0,0,0,0,0,0,0,0,0,0,0,0,0,0,0,0,0,0,0,0,0,0,0,0,0,0,0,0,0,0,0,0,0,0,0,0,0,0,0,0,0,0,0,0,0,0,0,0,0,0,0,0,0,0,0,0,0,0,0],"id":8,"left_children":[1,3,5,7,9,11,13,15,17,19,21,23,25,27,29,-1,-1,31,33,35,37,39,41,43,45,47,49,51,53,55,57,-1,-1,59,61,63,65,67,69,71,73,75,77,79,81,83,85,87,89,91,93,95,97,99,101,103,105,107,109,-1,-1,-1,-1,-1,-1,-1,-1,-1,-1,-1,-1,-1,-1,-1,-1,-1,-1,-1,-1,-1,-1,-1,-1,-1,-1,-1,-1,-1,-1,-1,-1,-1,-1,-1,-1,-1,-1,-1,-1,-1,-1,-1,-1,-1,-1,-1,-1,-1,-1,-1,-1],"loss_changes":[1.3904239E6,1.5097795E6,3.5026075E5,1.1702726E6,6.118253E5,2.3849906E5,5.0135875E5,3.7114E5,3.213058E5,6.333354E5,4.0112456E5,2.2166662E5,5.7708188E4,3.7530072E5,6.3828175E5,0E0,0E0,3.554035E5,5.631482E4,1.2763506E5,3.6951512E5,3.5117906E5,1.9446E4,6.956419E4,3.3196062E5,3.1009375E4,3.73667E4,1.3377975E5,2.102253E5,9.7627856E5,6.854527E5,0E0,0E0,6.095243E4,1.0096725E4,3.8783188E4,1.7827758E5,4.4606625E5,3.1230738E5,2.5340477E5,3.2491488E5,1.0876594E4,6.5085366E3,9.726965E4,1.1983203E5,3.255428E5,1.4066248E5,3.0685E3,6.006822E4,3.3061914E3,6.6608664E4,1.6813819E5,1.12054375E5,3.8349756E5,1.493023E6,4.030277E5,4.3023562E5,3.952962E5,3.1911762E5,0E0,0E0,0E0,0E0,0E0,0E0,0E0,0E0,0E0,0E0,0E0,0E0,0E0,0E0,0E0,0E0,0E0,0E0,0E0,0E0,0E0,0E0,0E0,0E0,0E0,0E0,0E0,0E0,0E0,0E0,0E0,0E0,0E0,0E0,0E0,0E0,0E0,0E0,0E0,0E0,0E0,0E0,0E0,0E0,0E0,0E0,0E0,0E0,0E0,0E0,0E0,0E0],"parents":[2147483647,0,0,1,1,2,2,3,3,4,4,5,5,6,6,7,7,8,8,9,9,10,10,11,11,12,12,13,13,14,14,17,17,18,18,19,19,20,20,21,21,22,22,23,23,24,24,25,25,26,26,27,27,28,28,29,29,30,30,33,33,34,34,35,35,36,36,37,37,38,38,39,39,40,40,41,41,42,42,43,43,44,44,45,45,46,46,47,47,48,48,49,49,50,50,51,51,52,52,53,53,54,54,55,55,56,56,57,57,58,58],"right_children":[2,4,6,8,10,12,14,16,18,20,22,24,26,28,30,-1,-1,32,34,36,38,40,42,44,46,48,50,52,54,56,58,-1,-1,60,62,64,66,68,70,72,74,76,78,80,82,84,86,88,90,92,94,96,98,100,102,104,106,108,110,-1,-1,-1,-1,-1,-1,-1,-1,-1,-1,-1,-1,-1,-1,-1,-1,-1,-1,-1,-1,-1,-1,-1,-1,-1,-1,-1,-1,-1,-1,-1,-1,-1,-1,-1,-1,-1,-1,-1,-1,-1,-1,-1,-1,-1,-1,-1,-1,-1,-1,-1,-1],"split_conditions":[-5.842195E-1,-2.6758066E-1,-5.1123285E-1,-7.897664E-1,-9.45982E-1,1.4506944E0,2.0467803E0,-4.1342744E-1,1E0,-6.246208E-1,5.530343E0,-1.7312577E-1,9.7E2,-3.327205E-1,7.8933036E-1,5.3453777E1,-5.330889E0,-6.5821636E-1,-7.1165854E-1,-6.488235E-1,-9.747585E-1,-5.8309495E-1,4.945E3,-4.4444764E-1,3.900726E-1,-5.521785E-1,-5.788678E-1,-5.7188666E-1,-4.6640882E-4,-4.839779E-2,3.0745146E0,4.3758892E1,-5.462627E0,-3.789469E-1,5E0,-2.4806418E-1,1.1372728E0,-1.291983E-1,1.8011674E0,5.9E1,7.89E2,-9.295382E-1,-9.295382E-1,8.3314605E-2,-5.876537E-1,-6.088725E-1,-5.752208E-1,6.4727503E-1,1.9851162E0,1.034E3,1.8617882E0,1.7E1,5.9E1,-3.3170193E-1,-4.1342744E-1,3.8720365E0,2.04E2,4.008206E0,2.0440576E0,2.127062E1,-2.3943107E0,-1.0193185E1,-2.7620153E0,3.4969978E0,-4.344721E0,2.2835784E0,1.1233821E1,3.942132E1,-5.721765E-1,1.0259073E1,-1.1815071E1,-4.0841746E0,4.0192804E-1,1.5396795E0,5.6685257E0,-1.7541565E0,-1.0385368E1,-5.36343E0,2.0594935E0,-2.401453E0,1.5826118E0,-1.08010046E-1,-4.552173E0,-5.0900044E0,7.173759E0,-6.3384204E0,2.2443998E-1,-6.769098E0,-9.146606E0,9.9689335E-1,-6.533053E0,-9.081917E-1,-8.180093E0,8.982504E0,-3.5137727E0,2.904014E1,1.1271652E0,-3.0746584E0,-1.2657372E0,-2.5321271E0,4.4184502E-2,1.2133286E1,-1.6657731E-1,4.162134E0,-6.7059517E0,1.0777833E1,2.862007E1,-3.9996579E0,1.0406217E1,3.1182764E1,2.3503213E0],"split_indices":[1,3,0,1,1,1,1,0,4,0,3,1,4,2,0,0,0,1,1,0,1,0,4,1,1,0,0,1,1,0,1,0,0,0,4,3,2,3,3,4,4,1,1,3,0,0,0,2,1,4,1,4,4,0,0,1,4,0,0,0,0,0,0,0,0,0,0,0,0,0,0,0,0,0,0,0,0,0,0,0,0,0,0,0,0,0,0,0,0,0,0,0,0,0,0,0,0,0,0,0,0,0,0,0,0,0,0,0,0,0,0],"split_type":[0,0,0,0,0,0,0,0,0,0,0,0,0,0,0,0,0,0,0,0,0,0,0,0,0,0,0,0,0,0,0,0,0,0,0,0,0,0,0,0,0,0,0,0,0,0,0,0,0,0,0,0,0,0,0,0,0,0,0,0,0,0,0,0,0,0,0,0,0,0,0,0,0,0,0,0,0,0,0,0,0,0,0,0,0,0,0,0,0,0,0,0,0,0,0,0,0,0,0,0,0,0,0,0,0,0,0,0,0,0,0],"sum_hessian":[1.217E4,4.151E3,8.019E3,2.9E1,4.122E3,1.208E3,6.811E3,1.1E1,1.8E1,4.01E2,3.721E3,1.053E3,1.55E2,6.278E3,5.33E2,1E1,1E0,5E0,1.3E1,2.76E2,1.25E2,3.684E3,3.7E1,7.98E2,2.55E2,1.33E2,2.2E1,1.394E3,4.884E3,2.9E2,2.43E2,3E0,2E0,3E0,1E1,3.9E1,2.37E2,1.2E1,1.13E2,1.832E3,1.852E3,3.4E1,3E0,4.35E2,3.63E2,1.24E2,1.31E2,6.9E1,6.4E1,6E0,1.6E1,1E1,1.384E3,2.425E3,2.459E3,2.07E2,8.3E1,2.28E2,1.5E1,1E0,2E0,2E0,8E0,7E0,3.2E1,2.13E2,2.4E1,8E0,4E0,1.07E2,6E0,1.35E2,1.697E3,1.637E3,2.15E2,2E0,3.2E1,1E0,2E0,3.62E2,7.3E1,7.7E1,2.86E2,2.7E1,9.7E1,5.8E1,7.3E1,2.9E1,4E1,1.3E1,5.1E1,1E0,5E0,6E0,1E1,2E0,8E0,7.51E2,6.33E2,9.48E2,1.477E3,1.02E2,2.357E3,1.65E2,4.2E1,6.6E1,1.7E1,2.08E2,2E1,8E0,7E0],"tree_param":{"num_deleted":"0","num_feature":"5","num_nodes":"111","size_leaf_vector":"1"}},{"base_weights":[2.3524818E-1,3.0298063E1,-3.0648854E0,8.130591E0,4.73681E1,-4.79392E0,2.9261463E1,2.8486454E1,-3.6916666E0,1.5484674E2,4.1471626E1,-1.5193555E1,-1.561104E0,2.1005228E2,1.8207153E1,2.0453588E1,1.9044131E2,6.24158E0,-2.6898548E1,2.0864633E2,4.7751545E1,3.3649426E1,9.412525E1,-3.4228848E1,-1.2158286E1,-2.7245083E0,3.1263756E1,4.0278976E2,1.6296267E1,1.106832E1,2.606655E2,9.491425E1,3.0590386E0,3.0688715E2,-3.183776E1,-1.5694389E1,3.1978863E1,-4.0111435E1,1.0310793E1,9.9988976E1,4.4272186E2,-3.553549E1,1.2421693E2,2.8107714E1,1.280244E2,1.1356522E2,-1.3316098E1,-2.923882E1,-8.118821E1,2.7917458E1,-1.5982505E1,1.2781065E2,-3.2193146E0,1.1572239E1,1.1846265E2,4.8731644E1,1.1936784E2,-4.1461983E1,4.381737E1,7.022132E0,1.6583954E2,7.341255E1,4.1533524E2,6.1753035E0,3.364755E1,5.6783156E0,-1.1292886E0,4.977714E0,4.2299786E1,5.2035522E0,-7.7140694E0,9.533497E-1,-3.1664903E0,-4.0947056E0,4.3275776E0,-8.117694E0,-3.0029E0,6.837963E0,-9.536476E-1,1.9954092E1,1.0348511E0,5.612942E1,2.134691E1,2.8727663E0,-6.6986284E0,1.7592249E1,-3.3646545E-1,2.9778728E0,-1.2390464E1,-9.911544E-1,1.9418015E1,1.8660334E1,6.555047E0,6.7839165E0,-3.1392155E0,-4.2362647E0,-8.522178E0,2.2185555E0,2.3097525E1,-1.0173091E0,-2.9060962E0,5.7693684E1,3.287299E0,5.1489896E-1,-7.214457E-1,3.6804326E0,-5.1688795E0,-2.0049527E-1,1.988412E1,1.5192752E1,-5.435433E-1,2.7563477E0,-6.077977E0,-7.552182E-1,7.0446167E0,1.9333788E0,-3.0465906E0,1.3220472E0,4.0738598E1,1.19545236E-1,1.9337591E1,5.9476727E1,1.8872257E1],"categories":[],"categories_nodes":[],"categories_segments":[],"categories_sizes":[],"default_left":[0,0,0,0,0,0,0,0,0,0,0,0,0,0,0,0,0,0,0,0,0,0,0,0,0,0,0,0,0,0,0,0,0,0,0,0,0,0,0,0,0,0,0,0,0,0,0,0,0,0,0,0,0,0,0,0,0,0,0,0,0,0,0,0,0,0,0,0,0,0,0,0,0,0,0,0,0,0,0,0,0,0,0,0,0,0,0,0,0,0,0,0,0,0,0,0,0,0,0,0,0,0,0,0,0,0,0,0,0,0,0,0,0,0,0,0,0,0,0,0,0,0,0],"id":9,"left_children":[1,3,5,7,9,11,13,15,17,19,21,23,25,27,29,31,33,35,37,39,41,43,45,47,49,51,53,55,57,59,61,63,65,67,69,71,73,75,77,79,81,83,85,87,89,91,-1,93,95,97,99,101,103,105,107,-1,109,111,113,115,117,119,121,-1,-1,-1,-1,-1,-1,-1,-1,-1,-1,-1,-1,-1,-1,-1,-1,-1,-1,-1,-1,-1,-1,-1,-1,-1,-1,-1,-1,-1,-1,-1,-1,-1,-1,-1,-1,-1,-1,-1,-1,-1,-1,-1,-1,-1,-1,-1,-1,-1,-1,-1,-1,-1,-1,-1,-1,-1,-1,-1,-1],"loss_changes":[1.2075935E6,4.5520788E5,6.1317894E5,1.2644761E5,4.245245E5,3.5002878E5,1.1093501E6,2.4719042E5,7.6930945E4,1.9169562E5,2.6289912E5,1.4223581E5,3.0345525E5,1.1884455E6,9.075521E5,2.3932342E5,2.4272181E5,1.326118E5,4.957786E4,5.407154E5,8.720559E4,2.913728E5,3.8185294E5,7.706356E4,3.2703984E5,4.9600775E5,4.656745E5,3.2513775E5,2.8839459E4,3.19467E5,4.0394475E5,2.595879E5,1.1706895E5,1.5806381E5,1.9212879E4,5.147046E4,9.07465E4,2.8201328E4,3.1769814E4,1.4964105E5,7.0462125E4,1.6072248E4,4.6768656E4,1.393336E5,2.8480753E5,2.5779994E5,0E0,6.651434E4,1.4011562E3,2.113625E5,1.4755784E5,1.2175651E6,2.5562906E5,3.5785672E5,4.845492E5,0E0,2.1143562E4,9.675816E3,1.6946932E4,2.3135895E5,4.7385378E5,6.907608E4,2.130465E5,0E0,0E0,0E0,0E0,0E0,0E0,0E0,0E0,0E0,0E0,0E0,0E0,0E0,0E0,0E0,0E0,0E0,0E0,0E0,0E0,0E0,0E0,0E0,0E0,0E0,0E0,0E0,0E0,0E0,0E0,0E0,0E0,0E0,0E0,0E0,0E0,0E0,0E0,0E0,0E0,0E0,0E0,0E0,0E0,0E0,0E0,0E0,0E0,0E0,0E0,0E0,0E0,0E0,0E0,0E0,0E0,0E0,0E0,0E0,0E0],"parents":[2147483647,0,0,1,1,2,2,3,3,4,4,5,5,6,6,7,7,8,8,9,9,10,10,11,11,12,12,13,13,14,14,15,15,16,16,17,17,18,18,19,19,20,20,21,21,22,22,23,23,24,24,25,25,26,26,27,27,28,28,29,29,30,30,31,31,32,32,33,33,34,34,35,35,36,36,37,37,38,38,39,39,40,40,41,41,42,42,43,43,44,44,45,45,47,47,48,48,49,49,50,50,51,51,52,52,53,53,54,54,56,56,57,57,58,58,59,59,60,60,61,61,62,62],"right_children":[2,4,6,8,10,12,14,16,18,20,22,24,26,28,30,32,34,36,38,40,42,44,46,48,50,52,54,56,58,60,62,64,66,68,70,72,74,76,78,80,82,84,86,88,90,92,-1,94,96,98,100,102,104,106,108,-1,110,112,114,116,118,120,122,-1,-1,-1,-1,-1,-1,-1,-1,-1,-1,-1,-1,-1,-1,-1,-1,-1,-1,-1,-1,-1,-1,-1,-1,-1,-1,-1,-1,-1,-1,-1,-1,-1,-1,-1,-1,-1,-1,-1,-1,-1,-1,-1,-1,-1,-1,-1,-1,-1,-1,-1,-1,-1,-1,-1,-1,-1,-1,-1,-1],"split_conditions":[-8.76096E-1,-6.3150036E-1,1.6272706E0,-9.5420384E-1,-9.706476E-1,-2.5995076E-1,-7.609898E-1,-6.329094E-1,1.0250984E-1,-1.23817205E-1,2.178E3,-5.3319764E-1,1.6297109E0,9E0,-2.628421E-1,-2.4404843E-1,6.4727503E-1,-1.7545961E-1,3.358E3,-1.6919506E-1,3.8794857E-1,-2.1474987E-1,8.287E3,1.7672366E0,-6.623273E-1,1E0,-1.2340295E-2,-2.6750034E-1,-8.514304E-1,2.8196366E0,-3.9922732E-1,-2.4581535E-1,-9.747585E-1,-2.2300597E-1,-6.3208055E-1,2.52E2,-6.459225E-1,-9.45982E-1,-6.459225E-1,-9.747585E-1,1.5727727E-1,1.5727727E-1,6.4727503E-1,2.08E3,-2.5786257E-1,-9.3776006E-1,-1.3316098E1,-2.6742002E-1,-3.327205E-1,5.45E2,6.902817E-1,-2.5786257E-1,-5.677757E-1,1.8124568E0,1.5986013E-1,4.8731644E1,6.658303E-1,-6.3556176E-1,-5.921295E-1,-2.6709878E-1,7E0,-2.5473028E-1,4.6818042E-1,6.1753035E0,3.364755E1,5.6783156E0,-1.1292886E0,4.977714E0,4.2299786E1,5.2035522E0,-7.7140694E0,9.533497E-1,-3.1664903E0,-4.0947056E0,4.3275776E0,-8.117694E0,-3.0029E0,6.837963E0,-9.536476E-1,1.9954092E1,1.0348511E0,5.612942E1,2.134691E1,2.8727663E0,-6.6986284E0,1.7592249E1,-3.3646545E-1,2.9778728E0,-1.2390464E1,-9.911544E-1,1.9418015E1,1.8660334E1,6.555047E0,6.7839165E0,-3.1392155E0,-4.2362647E0,-8.522178E0,2.2185555E0,2.3097525E1,-1.0173091E0,-2.9060962E0,5.7693684E1,3.287299E0,5.1489896E-1,-7.214457E-1,3.6804326E0,-5.1688795E0,-2.0049527E-1,1.988412E1,1.5192752E1,-5.435433E-1,2.7563477E0,-6.077977E0,-7.552182E-1,7.0446167E0,1.9333788E0,-3.0465906E0,1.3220472E0,4.0738598E1,1.19545236E-1,1.9337591E1,5.9476727E1,1.8872257E1],"split_indices":[1,0,2,1,1,3,1,0,3,3,4,0,0,4,3,3,2,3,4,3,3,0,4,1,1,4,3,3,1,1,1,3,1,3,0,4,0,1,0,1,2,2,2,4,3,1,0,3,2,4,0,3,1,1,1,0,0,0,0,3,4,3,1,0,0,0,0,0,0,0,0,0,0,0,0,0,0,0,0,0,0,0,0,0,0,0,0,0,0,0,0,0,0,0,0,0,0,0,0,0,0,0,0,0,0,0,0,0,0,0,0,0,0,0,0,0,0,0,0,0,0,0,0],"split_type":[0,0,0,0,0,0,0,0,0,0,0,0,0,0,0,0,0,0,0,0,0,0,0,0,0,0,0,0,0,0,0,0,0,0,0,0,0,0,0,0,0,0,0,0,0,0,0,0,0,0,0,0,0,0,0,0,0,0,0,0,0,0,0,0,0,0,0,0,0,0,0,0,0,0,0,0,0,0,0,0,0,0,0,0,0,0,0,0,0,0,0,0,0,0,0,0,0,0,0,0,0,0,0,0,0,0,0,0,0,0,0,0,0,0,0,0,0,0,0,0,0,0,0],"sum_hessian":[1.217E4,1.203E3,1.0967E4,5.24E2,6.79E2,1.0411E4,5.56E2,1.92E2,3.32E2,3.4E1,6.45E2,2.468E3,7.943E3,3.1E1,5.25E2,1.84E2,8E0,2.33E2,9.9E1,2.2E1,1.2E1,5.63E2,8.2E1,3.38E2,2.13E3,7.672E3,2.71E2,1.5E1,1.6E1,5.11E2,1.4E1,3.4E1,1.5E2,5E0,3E0,1.26E2,1.07E2,7.3E1,2.6E1,1.6E1,6E0,6E0,6E0,5.33E2,3E1,7.6E1,6E0,3.07E2,3.1E1,1.85E2,1.945E3,2.8E1,7.644E3,2.22E2,4.9E1,1.1E1,4E0,5E0,1.1E1,4.99E2,1.2E1,7E0,7E0,3.1E1,3E0,3.1E1,1.19E2,2E0,3E0,1E0,2E0,4.9E1,7.7E1,1.4E1,9.3E1,1.3E1,6E1,6E0,2E1,7E0,9E0,3E0,3E0,2E0,4E0,4E0,2E0,5.28E2,5E0,1E1,2E1,2.9E1,4.7E1,6E0,3.01E2,4E0,2.7E1,1.81E2,4E0,1.348E3,5.97E2,4E0,2.4E1,2.47E3,5.174E3,1.59E2,6.3E1,2E1,2.9E1,3E0,1E0,1E0,4E0,4E0,7E0,3.76E2,1.23E2,8E0,4E0,5E0,2E0,3E0,4E0],"tree_param":{"num_deleted":"0","num_feature":"5","num_nodes":"123","size_leaf_vector":"1"}},{"base_weights":[2.5371808E-1,2.7446604E1,-2.7313738E0,1.0407314E1,4.5578663E1,-4.305761E0,2.6703543E1,3.432791E1,8.779859E0,1.7117125E2,3.9171883E1,-2.0685875E1,-2.6035645E0,1.6563658E2,1.446438E1,5.387225E1,5.5771546E0,2.6800833E2,8.1792915E1,-2.7609692E1,4.55363E1,-2.190224E1,3.8274475E1,-9.316533E0,1.833599E0,3.4019962E2,2.4986698E1,7.5226517E0,2.6135007E2,2.836609E1,1.1314829E2,-3.0229645E1,1.0954857E1,3.4357568E2,1.2258381E2,-1.9210272E1,2.5333328E2,5.9287735E1,-4.601133E1,4.406304E1,3.9623978E1,7.325382E0,-2.5767141E1,-1.3115279E1,2.6218843E0,4.837821E-1,3.7881226E1,4.2818356E1,6.3539814E1,3.869668E1,-4.0334564E1,3.6453745E0,1.5249101E2,8.4305466E1,3.8359534E2,2.293403E-2,9.3993025E0,3.1090038E0,1.673199E1,-2.160819E0,-6.1209583E0,1.4834205E0,-4.685032E0,1.2978644E1,5.2491833E1,1.6005789E0,1.7187138E1,8.558018E0,-9.131627E0,3.0407053E1,1.01239195E1,8.70776E0,2.7810058E-1,-9.39239E0,-2.0411785E0,4.6291804E0,-1.2174718E1,-2.1104696E-1,1.5320859E1,7.558586E-1,-2.9413157E0,-4.1393504E0,-1.1681935E0,-2.3024993E-1,4.376676E0,1.085828E1,-3.1913791E-3,1.3750337E0,1.5078038E1,-3.0450177E0,1.6767986E1,1.1128169E1,4.522195E-1,-5.163658E-1,-4.7836375E0,1.4010222E0,-2.7907593E0,2.996704E1,-6.916331E0,9.737143E-1,1.8048418E1,6.087444E1,2.0708826E1],"categories":[],"categories_nodes":[],"categories_segments":[],"categories_sizes":[],"default_left":[0,0,0,0,0,0,0,0,0,0,0,0,0,0,0,0,0,0,0,0,0,0,0,0,0,0,0,0,0,0,0,0,0,0,0,0,0,0,0,0,0,0,0,0,0,0,0,0,0,0,0,0,0,0,0,0,0,0,0,0,0,0,0,0,0,0,0,0,0,0,0,0,0,0,0,0,0,0,0,0,0,0,0,0,0,0,0,0,0,0,0,0,0,0,0,0,0,0,0,0,0,0,0],"id":10,"left_children":[1,3,5,7,9,11,13,-1,15,17,19,21,23,25,27,29,31,33,35,37,39,41,-1,43,45,47,49,51,53,55,57,59,61,63,65,67,69,71,73,75,-1,77,79,81,83,85,87,-1,89,91,93,95,97,99,101,-1,-1,-1,-1,-1,-1,-1,-1,-1,-1,-1,-1,-1,-1,-1,-1,-1,-1,-1,-1,-1,-1,-1,-1,-1,-1,-1,-1,-1,-1,-1,-1,-1,-1,-1,-1,-1,-1,-1,-1,-1,-1,-1,-1,-1,-1,-1,-1],"loss_changes":[9.880347E5,3.7151038E5,5.0839344E5,3.3394475E5,4.624025E5,2.9025528E5,9.447404E5,0E0,8.923842E4,2.2042262E5,2.3757169E5,4.8928794E5,2.8099353E5,1.0963518E6,8.772202E5,5.87785E4,1.12014984E5,1.0074469E5,2.8208456E5,8.108159E4,2.4501275E5,1.1066547E5,0E0,1.702821E5,2.7635734E5,4.596255E5,2.4845203E4,2.8048538E5,2.7066094E5,5.5374305E4,4.814075E4,1.8976367E4,1.139394E5,2.4202556E5,2.8766883E4,9.093107E4,1.5517156E4,1.3890666E4,4.8370984E4,1.9299825E5,0E0,1.5862456E5,1.05203625E5,1.1495284E5,1.8387092E5,3.052698E5,5.564199E5,0E0,6.3834617E4,5.406898E4,1.0722173E3,1.5998734E5,4.4482444E5,4.84458E4,1.9185925E5,0E0,0E0,0E0,0E0,0E0,0E0,0E0,0E0,0E0,0E0,0E0,0E0,0E0,0E0,0E0,0E0,0E0,0E0,0E0,0E0,0E0,0E0,0E0,0E0,0E0,0E0,0E0,0E0,0E0,0E0,0E0,0E0,0E0,0E0,0E0,0E0,0E0,0E0,0E0,0E0,0E0,0E0,0E0,0E0,0E0,0E0,0E0,0E0],"parents":[2147483647,0,0,1,1,2,2,3,3,4,4,5,5,6,6,8,8,9,9,10,10,11,11,12,12,13,13,14,14,15,15,16,16,17,17,18,18,19,19,20,20,21,21,23,23,24,24,25,25,26,26,27,27,28,28,29,29,30,30,31,31,32,32,33,33,34,34,35,35,36,36,37,37,38,38,39,39,41,41,42,42,43,43,44,44,45,45,46,46,48,48,49,49,50,50,51,51,52,52,53,53,54,54],"right_children":[2,4,6,8,10,12,14,-1,16,18,20,22,24,26,28,30,32,34,36,38,40,42,-1,44,46,48,50,52,54,56,58,60,62,64,66,68,70,72,74,76,-1,78,80,82,84,86,88,-1,90,92,94,96,98,100,102,-1,-1,-1,-1,-1,-1,-1,-1,-1,-1,-1,-1,-1,-1,-1,-1,-1,-1,-1,-1,-1,-1,-1,-1,-1,-1,-1,-1,-1,-1,-1,-1,-1,-1,-1,-1,-1,-1,-1,-1,-1,-1,-1,-1,-1,-1,-1,-1],"split_conditions":[-8.76096E-1,-6.246208E-1,1.6272706E0,-2.6750034E-1,-9.706476E-1,-2.656531E-1,-7.075476E-1,3.432791E1,-9.747585E-1,-6.0505974E-1,-2.6388618E-1,4.66E2,1.5727727E-1,-2.6750034E-1,-2.628421E-1,6.4727503E-1,-6.473316E-1,-1.291983E-1,-5.4828286E-1,-9.295382E-1,1.5042216E0,-2.673397E-1,3.8274475E1,4.09E2,1.6297109E0,1.1E1,6.658303E-1,2.8196366E0,-3.9922732E-1,2.853E3,1.109E3,2.898842E-1,1.4725996E0,-1.9569893E-1,7.06E2,-9.747585E-1,-4.9440703E-1,1.6272706E0,2.2E1,8.287E3,3.9623978E1,1.6961025E0,-6.623273E-1,-6.0505974E-1,1.0724882E0,1E0,-1.2340295E-2,4.2818356E1,2.1E1,1.2E1,-8.185429E-1,-2.6709878E-1,-2.6742002E-1,-2.5473028E-1,-2.6203895E-1,2.293403E-2,9.3993025E0,3.1090038E0,1.673199E1,-2.160819E0,-6.1209583E0,1.4834205E0,-4.685032E0,1.2978644E1,5.2491833E1,1.6005789E0,1.7187138E1,8.558018E0,-9.131627E0,3.0407053E1,1.01239195E1,8.70776E0,2.7810058E-1,-9.39239E0,-2.0411785E0,4.6291804E0,-1.2174718E1,-2.1104696E-1,1.5320859E1,7.558586E-1,-2.9413157E0,-4.1393504E0,-1.1681935E0,-2.3024993E-1,4.376676E0,1.085828E1,-3.1913791E-3,1.3750337E0,1.5078038E1,-3.0450177E0,1.6767986E1,1.1128169E1,4.522195E-1,-5.163658E-1,-4.7836375E0,1.4010222E0,-2.7907593E0,2.996704E1,-6.916331E0,9.737143E-1,1.8048418E1,6.087444E1,2.0708826E1],"split_indices":[1,0,2,3,1,3,1,0,1,0,3,4,2,3,3,2,0,3,0,1,0,3,0,4,0,4,0,1,1,4,4,3,3,3,4,1,0,2,4,4,0,0,1,0,1,4,3,0,4,4,1,3,3,3,3,0,0,0,0,0,0,0,0,0,0,0,0,0,0,0,0,0,0,0,0,0,0,0,0,0,0,0,0,0,0,0,0,0,0,0,0,0,0,0,0,0,0,0,0,0,0,0,0],"split_type":[0,0,0,0,0,0,0,0,0,0,0,0,0,0,0,0,0,0,0,0,0,0,0,0,0,0,0,0,0,0,0,0,0,0,0,0,0,0,0,0,0,0,0,0,0,0,0,0,0,0,0,0,0,0,0,0,0,0,0,0,0,0,0,0,0,0,0,0,0,0,0,0,0,0,0,0,0,0,0,0,0,0,0,0,0,0,0,0,0,0,0,0,0,0,0,0,0,0,0,0,0,0,0],"sum_hessian":[1.217E4,1.203E3,1.0967E4,6.21E2,5.82E2,1.0411E4,5.56E2,2E0,6.19E2,2.7E1,5.55E2,9.79E2,9.432E3,4.4E1,5.12E2,4E1,5.79E2,1.2E1,1.5E1,4.8E1,5.07E2,9.77E2,2E0,3.753E3,5.679E3,1.9E1,2.5E1,4.99E2,1.3E1,2.9E1,1.1E1,7.5E1,5.04E2,7E0,5E0,1E1,5E0,8E0,4E1,5.06E2,1E0,1.14E2,8.63E2,2.847E3,9.06E2,5.475E3,2.04E2,1.4E1,5E0,2.1E1,4E0,4.87E2,1.2E1,6E0,7E0,2.1E1,8E0,5E0,6E0,6E1,1.5E1,4.73E2,3.1E1,4E0,3E0,2E0,3E0,4E0,6E0,3E0,2E0,5E0,3E0,1.3E1,2.7E1,5E2,6E0,1.08E2,6E0,8.5E1,7.78E2,1.36E2,2.711E3,8.1E2,9.6E1,2.5E1,5.45E3,1.69E2,3.5E1,3E0,2E0,6E0,1.5E1,1E0,3E0,3.67E2,1.2E2,7E0,5E0,4E0,2E0,2E0,5E0],"tree_param":{"num_deleted":"0","num_feature":"5","num_nodes":"103","size_leaf_vector":"1"}},{"base_weights":[2.6683074E-1,1.1701391E1,-5.65294E0,1.817349E2,1.0461346E1,-1.2120209E1,-3.507861E-1,3.4639795E2,3.543974E1,4.7385468E1,8.045364E0,-2.3796888E1,-3.1655872E0,-4.43653E0,1.3541909E1,4.1743282E1,-5.3207445E0,1.6442178E2,-4.9861538E1,6.8918347E0,8.3869255E1,8.967701E0,-8.522523E1,-1.9294022E1,-4.2155064E1,-4.710059E0,9.418681E1,-8.448024E0,1.8419575E1,1.15385475E1,4.1070435E2,3.2844036E1,-4.0702232E1,-6.748761E1,-2.1440163E0,4.8996296E1,-1.2237467E1,1.318316E2,3.6084187E1,1.5110233E0,1.8815739E1,-9.135124E1,-1.031633E1,-5.162454E1,-1.8110249E1,3.0130062E1,-5.0064E1,-9.505745E0,1.4086482E1,1.4364354E2,1.0854394E1,-4.818561E1,-6.519866E0,3.21823E2,1.53791065E1,1.8280182E1,-2.1404701E1,1.0531453E2,-1.3192192E1,-7.056353E0,2.4440835E0,-1.2249008E0,-8.385898E0,-2.2976243E0,1.2458806E0,2.3565185E0,1.2832262E1,4.133319E0,-3.0750434E0,2.2387913E1,1.0274423E1,-6.4024734E0,8.217593E0,-7.892519E-1,1.6554892E0,5.7605987E0,1.17596E0,-2.2635896E0,-9.482987E0,-4.813325E0,1.8333725E0,-6.119877E0,-8.9066125E-2,-2.0276163E0,-2.1920851E-1,7.9136744E0,-5.4058576E0,-2.6779907E0,-5.4565244E0,4.1544943E0,-1.1274729E0,-9.67092E-1,3.1643512E0,-6.4712996E0,1.84219E1,-3.5979366E0,9.298429E0,3.9386117E0,-5.3322525E0,3.207878E0,-9.0282005E-1,2.0489812E0,7.635779E1,2.3652585E0,-3.7242475E0,2.4915398E1,1.7140017E0,5.2426715E0,-3.4495819E0,3.892102E0,-4.353694E0],"categories":[],"categories_nodes":[],"categories_segments":[],"categories_sizes":[],"default_left":[0,0,0,0,0,0,0,0,0,0,0,0,0,0,0,0,0,0,0,0,0,0,0,0,0,0,0,0,0,0,0,0,0,0,0,0,0,0,0,0,0,0,0,0,0,0,0,0,0,0,0,0,0,0,0,0,0,0,0,0,0,0,0,0,0,0,0,0,0,0,0,0,0,0,0,0,0,0,0,0,0,0,0,0,0,0,0,0,0,0,0,0,0,0,0,0,0,0,0,0,0,0,0,0,0,0,0,0,0,0,0],"id":11,"left_children":[1,3,5,7,9,11,13,15,17,19,21,23,25,27,29,-1,-1,31,33,35,37,39,41,43,45,47,49,51,53,55,57,-1,59,61,63,65,67,69,71,73,75,77,79,81,83,85,87,89,91,93,95,97,99,101,103,105,107,-1,109,-1,-1,-1,-1,-1,-1,-1,-1,-1,-1,-1,-1,-1,-1,-1,-1,-1,-1,-1,-1,-1,-1,-1,-1,-1,-1,-1,-1,-1,-1,-1,-1,-1,-1,-1,-1,-1,-1,-1,-1,-1,-1,-1,-1,-1,-1,-1,-1,-1,-1,-1,-1],"loss_changes":[8.239208E5,8.735448E5,2.7500525E5,7.104061E5,3.6742325E5,3.777008E5,2.5026695E5,4.1961312E5,1.9523798E5,3.731943E5,3.3377422E5,1.2880456E5,3.0807622E5,3.1253362E5,7.9251206E5,0E0,0E0,2.4887728E5,9.1071E3,9.805648E4,3.0006362E5,2.815161E5,1.6495531E4,4.7326094E4,1.775915E5,1.8177066E5,1.30324E5,2.218082E5,4.6459734E5,2.220384E5,1.375536E6,0E0,9.505658E3,6.207457E3,1.5030938E3,7.363562E4,8.457816E4,1.537075E5,3.190266E5,3.0895016E5,4.514905E5,6.2196875E3,5.216289E3,2.1317953E4,4.194897E4,1.32178E5,2.7675188E4,1.4550277E5,1.7132088E5,1.8100453E5,5.3349383E4,6.2379875E4,2.68089E5,6.4993156E5,2.2073945E5,2.1395044E5,1.661196E5,0E0,8.01995E3,0E0,0E0,0E0,0E0,0E0,0E0,0E0,0E0,0E0,0E0,0E0,0E0,0E0,0E0,0E0,0E0,0E0,0E0,0E0,0E0,0E0,0E0,0E0,0E0,0E0,0E0,0E0,0E0,0E0,0E0,0E0,0E0,0E0,0E0,0E0,0E0,0E0,0E0,0E0,0E0,0E0,0E0,0E0,0E0,0E0,0E0,0E0,0E0,0E0,0E0,0E0,0E0],"parents":[2147483647,0,0,1,1,2,2,3,3,4,4,5,5,6,6,7,7,8,8,9,9,10,10,11,11,12,12,13,13,14,14,17,17,18,18,19,19,20,20,21,21,22,22,23,23,24,24,25,25,26,26,27,27,28,28,29,29,30,30,32,32,33,33,34,34,35,35,36,36,37,37,38,38,39,39,40,40,41,41,42,42,43,43,44,44,45,45,46,46,47,47,48,48,49,49,50,50,51,51,52,52,53,53,54,54,55,55,56,56,58,58],"right_children":[2,4,6,8,10,12,14,16,18,20,22,24,26,28,30,-1,-1,32,34,36,38,40,42,44,46,48,50,52,54,56,58,-1,60,62,64,66,68,70,72,74,76,78,80,82,84,86,88,90,92,94,96,98,100,102,104,106,108,-1,110,-1,-1,-1,-1,-1,-1,-1,-1,-1,-1,-1,-1,-1,-1,-1,-1,-1,-1,-1,-1,-1,-1,-1,-1,-1,-1,-1,-1,-1,-1,-1,-1,-1,-1,-1,-1,-1,-1,-1,-1,-1,-1,-1,-1,-1,-1,-1,-1,-1,-1,-1,-1],"split_conditions":[-5.842195E-1,-2.6758066E-1,-7.446328E-2,3E0,-9.583148E-1,-3.9593852E-1,2.93E2,-6.5821636E-1,-7.1165854E-1,-6.3647354E-1,5.530343E0,-2.4712265E-1,1.0197046E0,1.1372728E0,5.755441E0,4.1743282E1,-5.3207445E0,-3.789469E-1,1.1E1,6.2E2,-1.291983E-1,-5.659376E-1,4.945E3,-1.312716E0,-5.659376E-1,5.75982E-1,-2.3478983E-1,-5.4422146E-1,-6.2130466E-2,6.4055014E-1,1.9274764E-1,3.2844036E1,-7.774335E-1,-4.7774693E-1,-5.502721E-1,-9.377948E-2,-9.747585E-1,-9.747585E-1,1.349E3,7.2E2,-8.5554135E-1,-9.295382E-1,-9.295382E-1,-3.1289762E-1,1.9382775E-1,-1.270298E-1,-5.1123285E-1,-5.5955386E-1,-3.4989607E-1,-5.225554E-1,6.4727503E-1,-1.279922E-2,-4.2287645E-1,-2.742765E-2,9.3E1,-2.6581374E-1,7.0250386E-1,1.0531453E2,2.260549E0,-7.056353E0,2.4440835E0,-1.2249008E0,-8.385898E0,-2.2976243E0,1.2458806E0,2.3565185E0,1.2832262E1,4.133319E0,-3.0750434E0,2.2387913E1,1.0274423E1,-6.4024734E0,8.217593E0,-7.892519E-1,1.6554892E0,5.7605987E0,1.17596E0,-2.2635896E0,-9.482987E0,-4.813325E0,1.8333725E0,-6.119877E0,-8.9066125E-2,-2.0276163E0,-2.1920851E-1,7.9136744E0,-5.4058576E0,-2.6779907E0,-5.4565244E0,4.1544943E0,-1.1274729E0,-9.67092E-1,3.1643512E0,-6.4712996E0,1.84219E1,-3.5979366E0,9.298429E0,3.9386117E0,-5.3322525E0,3.207878E0,-9.0282005E-1,2.0489812E0,7.635779E1,2.3652585E0,-3.7242475E0,2.4915398E1,1.7140017E0,5.2426715E0,-3.4495819E0,3.892102E0,-4.353694E0],"split_indices":[1,3,1,4,1,0,4,1,1,0,3,1,3,2,0,0,0,0,4,4,3,0,4,2,0,0,1,0,1,0,1,0,1,0,0,3,1,1,4,4,1,1,1,1,3,3,0,1,1,1,2,1,0,0,4,3,1,0,1,0,0,0,0,0,0,0,0,0,0,0,0,0,0,0,0,0,0,0,0,0,0,0,0,0,0,0,0,0,0,0,0,0,0,0,0,0,0,0,0,0,0,0,0,0,0,0,0,0,0,0,0],"split_type":[0,0,0,0,0,0,0,0,0,0,0,0,0,0,0,0,0,0,0,0,0,0,0,0,0,0,0,0,0,0,0,0,0,0,0,0,0,0,0,0,0,0,0,0,0,0,0,0,0,0,0,0,0,0,0,0,0,0,0,0,0,0,0,0,0,0,0,0,0,0,0,0,0,0,0,0,0,0,0,0,0,0,0,0,0,0,0,0,0,0,0,0,0,0,0,0,0,0,0,0,0,0,0,0,0,0,0,0,0,0,0],"sum_hessian":[1.217E4,4.151E3,8.019E3,2.9E1,4.122E3,3.612E3,4.407E3,1.3E1,1.6E1,2.52E2,3.87E3,1.567E3,2.045E3,3.406E3,1.001E3,1.1E1,2E0,6E0,1E1,1.2E2,1.32E2,3.833E3,3.7E1,1.26E3,3.07E2,2.014E3,3.1E1,2.898E3,5.08E2,9.97E2,4E0,3E0,3E0,7E0,3E0,3.7E1,8.3E1,6.5E1,6.7E1,2.182E3,1.651E3,3.4E1,3E0,4.3E1,1.217E3,3E1,2.77E2,1.605E3,4.09E2,1.9E1,1.2E1,1.33E2,2.765E3,4E0,5.04E2,8.28E2,1.69E2,1E0,3E0,2E0,1E0,2E0,5E0,1E0,2E0,2.9E1,8E0,2.1E1,6.2E1,1.4E1,5.1E1,2.1E1,4.6E1,1.343E3,8.39E2,2.53E2,1.398E3,2E0,3.2E1,1E0,2E0,3.6E1,7E0,1.071E3,1.46E2,1.9E1,1.1E1,4.6E1,2.31E2,5.3E1,1.552E3,1.74E2,2.35E2,3E0,1.6E1,8E0,4E0,7E0,1.26E2,1.68E2,2.597E3,3E0,1E0,4.36E2,6.8E1,3E0,8.25E2,2.5E1,1.44E2,1E0,2E0],"tree_param":{"num_deleted":"0","num_feature":"5","num_nodes":"111","size_leaf_vector":"1"}},{"base_weights":[2.6625842E-1,2.2861612E1,-2.2141457E0,5.493606E0,3.6237114E1,-3.5196571E0,2.2193752E1,1.833759E1,-8.282208E0,1.2164884E2,3.155345E1,-1.2011501E1,-8.799436E-1,1.3938657E2,1.1870418E1,-2.0176472E1,3.0043629E1,1.499835E1,-1.6874016E1,2.5029373E2,8.640184E1,2.4450583E1,7.9438545E1,-8.835217E0,-2.7486195E1,-3.201303E-1,-5.3258667E1,2.845914E2,2.232953E1,5.403E0,2.4200174E2,5.5527954E1,-2.7533253E1,5.4491966E1,5.7731495E0,9.041055E0,2.100472E1,-2.7706135E1,1.6695608E1,6.4176125E1,4.7705853E1,5.2329E1,2.3948566E2,2.0877544E1,1.3167291E2,9.58768E1,-1.127307E1,-2.877306E1,-4.8820844E0,4.5092064E1,-3.2785385E1,-1.3315579E0,2.5443405E1,-5.824907E1,6.1111664E1,3.5614254E1,5.828167E1,3.5094418E1,-3.8301884E1,1.8907531E0,1.3683171E2,7.930998E1,3.541068E2,9.061098E0,-9.758728E-1,-6.200535E0,-1.437219E0,3.8032296E0,2.2400715E1,-1.19695686E-1,1.4680869E1,-4.213402E0,2.0759535E0,-2.434732E0,-7.426351E0,1.4254855E1,4.6000886E-1,8.841568E-1,7.579937E0,2.007492E0,2.8216726E1,2.6801685E1,6.268042E0,2.2379506E0,-1.1827925E1,1.6348095E1,-2.0525467E0,3.0359972E0,1.3705009E1,-2.4309957E0,-7.083126E0,-6.0209566E-1,9.691433E0,1.2845172E1,1.1576302E-1,-3.645253E0,5.0251756E0,-2.3665085E-1,2.6640038E0,4.470049E0,-1.661924E0,-4.3234334E0,-8.368121E0,-4.2392592E0,1.0974395E1,-2.9365418E0,1.5571723E1,1.3179614E1,1.2889085E0,-5.4934543E-1,-4.513063E0,-1.0183154E0,2.5806177E0,-3.0190194E-2,3.563059E1,9.5118505E-1,1.6920355E1,5.6680164E1,1.8874159E1],"categories":[],"categories_nodes":[],"categories_segments":[],"categories_sizes":[],"default_left":[0,0,0,0,0,0,0,0,0,0,0,0,0,0,0,0,0,0,0,0,0,0,0,0,0,0,0,0,0,0,0,0,0,0,0,0,0,0,0,0,0,0,0,0,0,0,0,0,0,0,0,0,0,0,0,0,0,0,0,0,0,0,0,0,0,0,0,0,0,0,0,0,0,0,0,0,0,0,0,0,0,0,0,0,0,0,0,0,0,0,0,0,0,0,0,0,0,0,0,0,0,0,0,0,0,0,0,0,0,0,0,0,0,0,0,0,0,0,0],"id":12,"left_children":[1,3,5,7,9,11,13,15,17,19,21,23,25,27,29,31,33,35,37,39,41,43,45,47,49,51,53,55,57,59,61,63,65,67,69,71,-1,73,75,77,-1,79,81,83,85,87,-1,89,91,93,95,97,99,101,103,-1,105,107,109,111,113,115,117,-1,-1,-1,-1,-1,-1,-1,-1,-1,-1,-1,-1,-1,-1,-1,-1,-1,-1,-1,-1,-1,-1,-1,-1,-1,-1,-1,-1,-1,-1,-1,-1,-1,-1,-1,-1,-1,-1,-1,-1,-1,-1,-1,-1,-1,-1,-1,-1,-1,-1,-1,-1,-1,-1,-1,-1],"loss_changes":[6.821817E5,2.7949712E5,3.4957112E5,9.304345E4,2.681887E5,2.3338516E5,6.7221556E5,1.2323659E5,5.105869E4,1.3707631E5,2.1777612E5,1.2111347E5,2.3291936E5,7.5852125E5,7.622188E5,3.7173082E4,1.2370034E5,7.8276445E4,6.809778E4,2.6481862E5,1.3873195E5,2.1332478E5,2.7299928E5,1.6143427E5,1.6301297E5,2.0487542E5,5.150303E4,3.0309762E5,2.1466965E4,2.3054631E5,2.2725575E5,1.4626975E4,2.5876523E4,2.8165756E5,1.0437719E5,4.1653875E4,0E0,2.0241133E4,6.936808E4,2.5456504E3,0E0,1.7966606E5,8.422906E3,1.169745E5,9.049591E4,2.0355E5,0E0,6.1911812E4,1.9906103E5,1.0605972E5,1.2119941E5,2.1906388E5,2.4131402E5,2.7312531E4,2.4786926E4,0E0,5.5812367E4,4.5541742E4,8.722793E2,1.4117405E5,3.913723E5,4.2311387E4,1.7439956E5,0E0,0E0,0E0,0E0,0E0,0E0,0E0,0E0,0E0,0E0,0E0,0E0,0E0,0E0,0E0,0E0,0E0,0E0,0E0,0E0,0E0,0E0,0E0,0E0,0E0,0E0,0E0,0E0,0E0,0E0,0E0,0E0,0E0,0E0,0E0,0E0,0E0,0E0,0E0,0E0,0E0,0E0,0E0,0E0,0E0,0E0,0E0,0E0,0E0,0E0,0E0,0E0,0E0,0E0,0E0,0E0],"parents":[2147483647,0,0,1,1,2,2,3,3,4,4,5,5,6,6,7,7,8,8,9,9,10,10,11,11,12,12,13,13,14,14,15,15,16,16,17,17,18,18,19,19,20,20,21,21,22,22,23,23,24,24,25,25,26,26,27,27,28,28,29,29,30,30,31,31,32,32,33,33,34,34,35,35,37,37,38,38,39,39,41,41,42,42,43,43,44,44,45,45,47,47,48,48,49,49,50,50,51,51,52,52,53,53,54,54,56,56,57,57,58,58,59,59,60,60,61,61,62,62],"right_children":[2,4,6,8,10,12,14,16,18,20,22,24,26,28,30,32,34,36,38,40,42,44,46,48,50,52,54,56,58,60,62,64,66,68,70,72,-1,74,76,78,-1,80,82,84,86,88,-1,90,92,94,96,98,100,102,104,-1,106,108,110,112,114,116,118,-1,-1,-1,-1,-1,-1,-1,-1,-1,-1,-1,-1,-1,-1,-1,-1,-1,-1,-1,-1,-1,-1,-1,-1,-1,-1,-1,-1,-1,-1,-1,-1,-1,-1,-1,-1,-1,-1,-1,-1,-1,-1,-1,-1,-1,-1,-1,-1,-1,-1,-1,-1,-1,-1,-1,-1],"split_conditions":[-8.76096E-1,-6.3150036E-1,1.6272706E0,-9.4187105E-1,-9.706476E-1,-2.5995076E-1,-7.075476E-1,1.5727727E-1,3.52E2,-3.327205E-1,2.178E3,1.0771933E0,5.530343E0,-2.6750034E-1,-2.628421E-1,-2.6163736E-1,-7.177323E-2,3.45E2,2.632E3,-1.8895249E-1,-5.4828286E-1,1.7082097E-2,8.287E3,-5.3319764E-1,-2.673397E-1,1.0197046E0,1.8617882E0,1.1E1,6.658303E-1,2.8196366E0,-3.9922732E-1,-9.624257E-1,-6.44845E-1,-9.377948E-2,-6.329094E-1,5.9E1,2.100472E1,1.4725996E0,-1.5554154E-1,-6.2578124E-1,4.7705853E1,4.945E3,-4.9440703E-1,2.08E3,-8.8020694E-1,9.295238E-2,-1.127307E1,1.7672366E0,5.56E2,3E0,2.8196366E0,1.6297109E0,6.4727503E-1,-1.279922E-2,-5.788678E-1,3.5614254E1,2.1E1,4E0,-8.185429E-1,5.4628825E-1,7E0,-2.5473028E-1,-2.6203895E-1,9.061098E0,-9.758728E-1,-6.200535E0,-1.437219E0,3.8032296E0,2.2400715E1,-1.19695686E-1,1.4680869E1,-4.213402E0,2.0759535E0,-2.434732E0,-7.426351E0,1.4254855E1,4.6000886E-1,8.841568E-1,7.579937E0,2.007492E0,2.8216726E1,2.6801685E1,6.268042E0,2.2379506E0,-1.1827925E1,1.6348095E1,-2.0525467E0,3.0359972E0,1.3705009E1,-2.4309957E0,-7.083126E0,-6.0209566E-1,9.691433E0,1.2845172E1,1.1576302E-1,-3.645253E0,5.0251756E0,-2.3665085E-1,2.6640038E0,4.470049E0,-1.661924E0,-4.3234334E0,-8.368121E0,-4.2392592E0,1.0974395E1,-2.9365418E0,1.5571723E1,1.3179614E1,1.2889085E0,-5.4934543E-1,-4.513063E0,-1.0183154E0,2.5806177E0,-3.0190194E-2,3.563059E1,9.5118505E-1,1.6920355E1,5.6680164E1,1.8874159E1],"split_indices":[1,0,2,1,1,3,1,2,4,2,4,0,3,3,3,3,3,4,4,3,0,0,4,0,3,3,1,4,0,1,1,1,0,3,0,4,0,3,3,0,0,4,0,4,1,3,0,1,4,4,1,0,2,1,0,0,4,4,1,1,4,3,3,0,0,0,0,0,0,0,0,0,0,0,0,0,0,0,0,0,0,0,0,0,0,0,0,0,0,0,0,0,0,0,0,0,0,0,0,0,0,0,0,0,0,0,0,0,0,0,0,0,0,0,0,0,0,0,0],"split_type":[0,0,0,0,0,0,0,0,0,0,0,0,0,0,0,0,0,0,0,0,0,0,0,0,0,0,0,0,0,0,0,0,0,0,0,0,0,0,0,0,0,0,0,0,0,0,0,0,0,0,0,0,0,0,0,0,0,0,0,0,0,0,0,0,0,0,0,0,0,0,0,0,0,0,0,0,0,0,0,0,0,0,0,0,0,0,0,0,0,0,0,0,0,0,0,0,0,0,0,0,0,0,0,0,0,0,0,0,0,0,0,0,0,0,0,0,0,0,0],"sum_hessian":[1.217E4,1.203E3,1.0967E4,5.24E2,6.79E2,1.0411E4,5.56E2,2.71E2,2.53E2,3.4E1,6.45E2,2.468E3,7.943E3,4.4E1,5.12E2,6.3E1,2.08E2,6.8E1,1.85E2,6E0,2.8E1,5.63E2,8.2E1,2.049E3,4.19E2,7.86E3,8.3E1,1.9E1,2.5E1,4.99E2,1.3E1,5E0,5.8E1,1.03E2,1.05E2,6.7E1,1E0,1.4E2,4.5E1,4E0,2E0,2.4E1,4E0,5.46E2,1.7E1,7.6E1,6E0,3.38E2,1.711E3,2.8E1,3.91E2,7.564E3,2.96E2,8E1,3E0,1.4E1,5E0,2.1E1,4E0,4.87E2,1.2E1,6E0,7E0,3E0,2E0,1.5E1,4.3E1,9.5E1,8E0,1.01E2,4E0,1.2E1,5.5E1,1.32E2,8E0,3E0,4.2E1,1E0,3E0,2.2E1,2E0,3E0,1E0,5.41E2,5E0,1.4E1,3E0,3E1,4.6E1,3.07E2,3.1E1,1.693E3,1.8E1,9E0,1.9E1,3.75E2,1.6E1,7.295E3,2.69E2,2.03E2,9.3E1,5.2E1,2.8E1,1E0,2E0,3E0,2E0,3E0,1.8E1,1E0,3E0,3.24E2,1.63E2,8E0,4E0,4E0,2E0,2E0,5E0],"tree_param":{"num_deleted":"0","num_feature":"5","num_nodes":"119","size_leaf_vector":"1"}},{"base_weights":[2.7216887E-1,9.798507E0,-4.9128428E0,1.4394435E2,8.788301E0,-1.1141841E1,-1.1641646E-3,2.7932346E2,2.3131536E1,4.0038147E1,6.8130083E0,-2.1201008E1,-3.633551E0,-1.3394536E1,3.7019835E0,3.5235577E1,-9.604458E0,1.3693527E2,-4.51816E1,2.9599164E0,6.9944435E1,4.029588E0,3.4575165E1,-1.687847E1,-3.7664474E1,-5.092229E0,9.8812065E1,-2.0338896E1,5.954396E0,-2.4975218E1,5.9667025E0,-4.8981414E0,5.42632E0,2.7709661E1,-3.7459904E1,-9.108985E0,-2.6890965E1,4.3939167E1,-1.575164E1,1.1227193E2,2.9557943E1,4.9334865E0,-7.3586395E1,1.8120438E2,2.9507013E1,-2.0978735E1,-9.2611265E0,2.7710106E1,-4.4818962E1,-1.0036951E1,1.0959747E1,1.6573117E2,8.849167E0,-2.2389E1,7.518515E1,1.8295765E1,-3.585358E1,2.6833569E1,-4.7372402E1,4.6175663E1,2.0676947E0,-6.640458E0,2.4687066E0,-3.1566682E0,7.595238E-1,1.8138859E0,1.319729E1,3.1949627E0,-3.1389537E0,8.823321E0,2.0718704E1,-5.3470325E0,6.8820353E0,-3.7115734E-2,1.9450105E0,-8.056205E0,-1.8305476E0,2.3199086E0,2.5730713E1,4.9407444E0,-4.336196E-1,-1.6466335E0,-3.5137632E0,1.0530241E1,-1.2357507E0,-4.479421E0,8.25629E0,-2.3879611E0,-4.8867803E0,-1.2616601E0,2.8737133E0,-1.1716151E0,2.636594E0,1.8341726E1,-4.978022E0,-3.5777528E0,8.740738E0,-2.6648731E0,1.5659882E0,3.3600048E1,9.2135257E-1,1.4469576E0,2.5962402E1,-5.8912992E0,1.8662493E0,9.819218E-1,1.9557434E1,-2.4710817E0,-6.1283197E0,7.9039583E0,-4.9447117E0,-4.3845024E-2,4.3384194E0],"categories":[],"categories_nodes":[],"categories_segments":[],"categories_sizes":[],"default_left":[0,0,0,0,0,0,0,0,0,0,0,0,0,0,0,0,0,0,0,0,0,0,0,0,0,0,0,0,0,0,0,0,0,0,0,0,0,0,0,0,0,0,0,0,0,0,0,0,0,0,0,0,0,0,0,0,0,0,0,0,0,0,0,0,0,0,0,0,0,0,0,0,0,0,0,0,0,0,0,0,0,0,0,0,0,0,0,0,0,0,0,0,0,0,0,0,0,0,0,0,0,0,0,0,0,0,0,0,0,0,0,0,0],"id":13,"left_children":[1,3,5,7,9,11,13,15,17,19,21,23,25,27,29,-1,31,33,35,37,39,41,43,45,47,49,51,53,55,57,59,-1,-1,-1,61,-1,63,65,67,69,71,73,75,77,79,81,83,85,87,89,91,93,95,97,99,101,103,105,107,109,111,-1,-1,-1,-1,-1,-1,-1,-1,-1,-1,-1,-1,-1,-1,-1,-1,-1,-1,-1,-1,-1,-1,-1,-1,-1,-1,-1,-1,-1,-1,-1,-1,-1,-1,-1,-1,-1,-1,-1,-1,-1,-1,-1,-1,-1,-1,-1,-1,-1,-1,-1,-1],"loss_changes":[6.012247E5,5.800938E5,2.4114847E5,5.1691575E5,2.626251E5,2.623798E5,2.1867597E5,3.1990038E5,1.4612416E5,2.803376E5,3.0949656E5,1.0504275E5,2.980286E5,1.2844056E5,2.2447181E5,0E0,1.2717543E4,1.8148427E5,7.626797E3,8.810567E4,2.3600575E5,2.559448E5,2.6589894E5,3.6598344E4,1.4530022E5,1.5599773E5,1.6710003E5,1.3935481E5,1.311958E5,2.94845E5,5.018982E5,0E0,0E0,0E0,8.834631E3,0E0,1.8522329E3,7.937288E4,5.9932727E4,1.3687056E5,2.4165181E5,2.77381E5,1.4721359E4,1.383264E5,2.3863128E5,4.8297688E4,1.4816044E5,1.2698734E5,2.2401938E4,1.5059794E5,1.6205762E5,7.011547E4,4.870253E4,1.1208903E5,2.550004E5,1.7722338E5,7.401176E4,2.1914777E5,5.428325E4,8.932469E5,3.023708E5,0E0,0E0,0E0,0E0,0E0,0E0,0E0,0E0,0E0,0E0,0E0,0E0,0E0,0E0,0E0,0E0,0E0,0E0,0E0,0E0,0E0,0E0,0E0,0E0,0E0,0E0,0E0,0E0,0E0,0E0,0E0,0E0,0E0,0E0,0E0,0E0,0E0,0E0,0E0,0E0,0E0,0E0,0E0,0E0,0E0,0E0,0E0,0E0,0E0,0E0,0E0,0E0],"parents":[2147483647,0,0,1,1,2,2,3,3,4,4,5,5,6,6,7,7,8,8,9,9,10,10,11,11,12,12,13,13,14,14,16,16,17,17,18,18,19,19,20,20,21,21,22,22,23,23,24,24,25,25,26,26,27,27,28,28,29,29,30,30,34,34,36,36,37,37,38,38,39,39,40,40,41,41,42,42,43,43,44,44,45,45,46,46,47,47,48,48,49,49,50,50,51,51,52,52,53,53,54,54,55,55,56,56,57,57,58,58,59,59,60,60],"right_children":[2,4,6,8,10,12,14,16,18,20,22,24,26,28,30,-1,32,34,36,38,40,42,44,46,48,50,52,54,56,58,60,-1,-1,-1,62,-1,64,66,68,70,72,74,76,78,80,82,84,86,88,90,92,94,96,98,100,102,104,106,108,110,112,-1,-1,-1,-1,-1,-1,-1,-1,-1,-1,-1,-1,-1,-1,-1,-1,-1,-1,-1,-1,-1,-1,-1,-1,-1,-1,-1,-1,-1,-1,-1,-1,-1,-1,-1,-1,-1,-1,-1,-1,-1,-1,-1,-1,-1,-1,-1,-1,-1,-1,-1,-1],"split_conditions":[-5.677757E-1,-2.6758066E-1,-7.446328E-2,3E0,-9.583148E-1,-3.9593852E-1,-3.327205E-1,-6.5821636E-1,-7.1165854E-1,-6.371366E-1,-1.7604214E-1,-2.4712265E-1,1.1727042E0,1.46E2,-5.4828286E-1,3.5235577E1,3.554225E-1,-3.789469E-1,5E0,6.2E2,-1.291983E-1,5.530343E0,-9.089835E-1,-1.526502E-1,-5.659376E-1,4.578695E-1,-2.3478983E-1,-2.8804824E-2,-4.9204778E-2,3.7362888E-1,-4.1889793E-1,-4.8981414E0,5.42632E0,2.7709661E1,-7.774335E-1,-9.108985E0,1.1647208E0,-9.377948E-2,-9.747585E-1,-1.5867382E-1,1.349E3,7.89E2,4.945E3,-3.327205E-1,6.4727503E-1,-2.1585795E-1,3E1,-6.142601E-1,-5.1123285E-1,9.295238E-2,-3.4989607E-1,4.2610966E-2,6.4727503E-1,2.1125553E0,-2.2927115E0,-5.659374E-2,7.66E2,3.3663043E-1,1.1053756E0,2.387988E0,2.7291958E0,-6.640458E0,2.4687066E0,-3.1566682E0,7.595238E-1,1.8138859E0,1.319729E1,3.1949627E0,-3.1389537E0,8.823321E0,2.0718704E1,-5.3470325E0,6.8820353E0,-3.7115734E-2,1.9450105E0,-8.056205E0,-1.8305476E0,2.3199086E0,2.5730713E1,4.9407444E0,-4.336196E-1,-1.6466335E0,-3.5137632E0,1.0530241E1,-1.2357507E0,-4.479421E0,8.25629E0,-2.3879611E0,-4.8867803E0,-1.2616601E0,2.8737133E0,-1.1716151E0,2.636594E0,1.8341726E1,-4.978022E0,-3.5777528E0,8.740738E0,-2.6648731E0,1.5659882E0,3.3600048E1,9.2135257E-1,1.4469576E0,2.5962402E1,-5.8912992E0,1.8662493E0,9.819218E-1,1.9557434E1,-2.4710817E0,-6.1283197E0,7.9039583E0,-4.9447117E0,-4.3845024E-2,4.3384194E0],"split_indices":[1,3,1,4,1,0,2,1,1,0,0,1,3,4,0,0,0,0,4,4,3,3,1,3,0,0,1,3,3,1,0,0,0,0,1,0,0,3,1,3,4,4,4,2,2,3,4,0,0,3,1,0,2,1,2,3,4,1,1,1,1,0,0,0,0,0,0,0,0,0,0,0,0,0,0,0,0,0,0,0,0,0,0,0,0,0,0,0,0,0,0,0,0,0,0,0,0,0,0,0,0,0,0,0,0,0,0,0,0,0,0,0,0],"split_type":[0,0,0,0,0,0,0,0,0,0,0,0,0,0,0,0,0,0,0,0,0,0,0,0,0,0,0,0,0,0,0,0,0,0,0,0,0,0,0,0,0,0,0,0,0,0,0,0,0,0,0,0,0,0,0,0,0,0,0,0,0,0,0,0,0,0,0,0,0,0,0,0,0,0,0,0,0,0,0,0,0,0,0,0,0,0,0,0,0,0,0,0,0,0,0,0,0,0,0,0,0,0,0,0,0,0,0,0,0,0,0,0,0],"sum_hessian":[1.217E4,4.289E3,7.881E3,3.1E1,4.258E3,3.474E3,4.407E3,1.4E1,1.7E1,2.52E2,4.006E3,1.484E3,1.99E3,9.54E2,3.453E3,1.1E1,3E0,6E0,1.1E1,1.13E2,1.39E2,3.642E3,3.64E2,1.177E3,3.07E2,1.963E3,2.7E1,7.02E2,2.52E2,2.52E2,3.201E3,2E0,1E0,3E0,3E0,2E0,9E0,3.5E1,7.8E1,6.7E1,7.2E1,3.601E3,4.1E1,1.1E1,3.53E2,7.64E2,4.13E2,3E1,2.77E2,1.501E3,4.62E2,1.5E1,1.2E1,6.88E2,1.4E1,1.95E2,5.7E1,7.6E1,1.76E2,2.82E2,2.919E3,2E0,1E0,8E0,1E0,2.8E1,7E0,1.9E1,5.9E1,5.5E1,1.2E1,2.3E1,4.9E1,2.638E3,9.63E2,3.6E1,5E0,4E0,7E0,2.22E2,1.31E2,5.81E2,1.83E2,1E1,4.03E2,1.3E1,1.7E1,4.6E1,2.31E2,1.408E3,9.3E1,1.87E2,2.75E2,1.4E1,1E0,8E0,4E0,6.19E2,6.9E1,2E0,1.2E1,1.93E2,2E0,4E1,1.7E1,7E1,6E0,6.8E1,1.08E2,2.1E2,7.2E1,2.753E3,1.66E2],"tree_param":{"num_deleted":"0","num_feature":"5","num_nodes":"113","size_leaf_vector":"1"}},{"base_weights":[2.6275837E-1,9.063879E0,-4.293665E0,1.3788731E2,8.124329E0,-1.6278868E1,-2.1658897E0,2.6453787E2,2.5475834E1,7.247607E1,7.284543E0,-1.336918E1,-6.2727528E1,-4.53707E0,1.6230303E1,3.2005653E1,-4.5715976E0,1.26604294E2,-4.1194626E1,3.815757E1,1.8655113E2,8.60147E0,-2.8949663E1,-1.833144E1,-1.50549E0,-6.4212227E0,2.0600624E0,-1.0298084E1,-9.62596E-2,5.4619896E1,-1.6117039E1,2.5631437E1,-3.475685E1,-8.501719E0,-2.200992E1,1.3209234E1,9.2795456E1,2.6226562E2,-3.044426E1,8.019058E0,1.2803368E2,-4.7419815E1,-1.0637547E0,-4.8265427E1,-1.6406622E1,-1.5882232E1,2.3960754E1,-6.8337975E0,-2.2732134E1,-2.6377652E0,2.2555927E1,2.519034E1,1.2867284E2,-2.3836191E1,1.406157E2,-6.197761E0,2.3452713E0,-3.2987976E0,-4.0355683E-3,-1.3078521E0,7.6000495E0,2.8876243E0,1.4345818E1,5.6450014E0,3.1300581E1,2.2834122E0,-5.5815096E0,5.9136623E-1,3.1388245E0,-4.1769586E0,2.0961746E1,-7.7764587E0,-2.1776774E0,1.0597951E1,-1.5452968E0,1.11703746E-1,-5.403355E0,1.338713E0,-1.89015E0,-2.593893E0,1.06975E0,2.503901E1,1.6148332E0,-1.451146E0,3.076013E0,1.1448254E1,-3.1616485E0,-1.6834568E-2,-4.022693E0,1.6795578E0,9.9917786E1,4.232464E0,-6.06685E0,1.0425025E1,2.2858873E1,-3.3122811E0,6.6480255E0,2.1026037E1,9.866192E-1],"categories":[],"categories_nodes":[],"categories_segments":[],"categories_sizes":[],"default_left":[0,0,0,0,0,0,0,0,0,0,0,0,0,0,0,0,0,0,0,0,0,0,0,0,0,0,0,0,0,0,0,0,0,0,0,0,0,0,0,0,0,0,0,0,0,0,0,0,0,0,0,0,0,0,0,0,0,0,0,0,0,0,0,0,0,0,0,0,0,0,0,0,0,0,0,0,0,0,0,0,0,0,0,0,0,0,0,0,0,0,0,0,0,0,0,0,0,0,0],"id":14,"left_children":[1,3,5,7,9,11,13,15,17,19,21,23,25,27,29,-1,-1,31,33,35,37,39,41,43,45,-1,-1,47,49,51,53,-1,55,-1,57,59,61,63,65,67,69,71,73,75,77,79,81,83,85,87,89,91,93,95,97,-1,-1,-1,-1,-1,-1,-1,-1,-1,-1,-1,-1,-1,-1,-1,-1,-1,-1,-1,-1,-1,-1,-1,-1,-1,-1,-1,-1,-1,-1,-1,-1,-1,-1,-1,-1,-1,-1,-1,-1,-1,-1,-1,-1],"loss_changes":[4.8811584E5,5.0142178E5,2.0448928E5,4.2037E5,2.2228578E5,1.6255903E5,2.9721775E5,2.5577988E5,1.1983419E5,2.0037056E5,1.9450822E5,6.702614E4,1.010675E4,1.5439588E5,9.670016E5,0E0,0E0,1.5541984E5,7.3767344E3,5.602546E4,2.0514084E5,2.722697E5,7.36027E4,4.547497E4,1.2376353E5,0E0,0E0,1.1300297E5,1.9631788E5,7.726056E5,5.1511584E5,0E0,7.7915767E3,0E0,2.169317E3,5.0513215E4,3.795564E4,7.631894E4,6.6813555E3,1.9224105E5,2.7196625E5,6.5225906E4,9.0973266E4,1.3732875E4,5.6447844E4,5.8015223E4,2.1176989E5,5.938768E5,7.0092394E5,2.845898E5,1.9184532E6,3.791773E5,2.2263012E5,3.4105066E5,1.8004562E5,0E0,0E0,0E0,0E0,0E0,0E0,0E0,0E0,0E0,0E0,0E0,0E0,0E0,0E0,0E0,0E0,0E0,0E0,0E0,0E0,0E0,0E0,0E0,0E0,0E0,0E0,0E0,0E0,0E0,0E0,0E0,0E0,0E0,0E0,0E0,0E0,0E0,0E0,0E0,0E0,0E0,0E0,0E0,0E0],"parents":[2147483647,0,0,1,1,2,2,3,3,4,4,5,5,6,6,7,7,8,8,9,9,10,10,11,11,12,12,13,13,14,14,17,17,18,18,19,19,20,20,21,21,22,22,23,23,24,24,27,27,28,28,29,29,30,30,32,32,34,34,35,35,36,36,37,37,38,38,39,39,40,40,41,41,42,42,43,43,44,44,45,45,46,46,47,47,48,48,49,49,50,50,51,51,52,52,53,53,54,54],"right_children":[2,4,6,8,10,12,14,16,18,20,22,24,26,28,30,-1,-1,32,34,36,38,40,42,44,46,-1,-1,48,50,52,54,-1,56,-1,58,60,62,64,66,68,70,72,74,76,78,80,82,84,86,88,90,92,94,96,98,-1,-1,-1,-1,-1,-1,-1,-1,-1,-1,-1,-1,-1,-1,-1,-1,-1,-1,-1,-1,-1,-1,-1,-1,-1,-1,-1,-1,-1,-1,-1,-1,-1,-1,-1,-1,-1,-1,-1,-1,-1,-1,-1,-1],"split_conditions":[-5.842195E-1,-2.6758066E-1,-5.1123285E-1,3E0,-9.747585E-1,2.260549E0,1.7137944E0,-6.5821636E-1,-7.1165854E-1,-6.19399E-1,1.8011674E0,5.92E2,3.7362716E0,1.5727727E-1,6.218179E-1,3.2005653E1,-4.5715976E0,-3.789469E-1,5E0,6.4727503E-1,-1.291983E-1,1.4725996E0,2.178E3,1.1E1,-2.3890077E-1,-6.4212227E0,2.0600624E0,7.5594604E-1,1.2515861E-1,-4.839779E-2,3.0745146E0,2.5631437E1,-7.774335E-1,-8.501719E0,1.1E1,2.853E3,1.109E3,-2.5954917E-1,-6.064688E-1,-1.5805589E-1,-6.3150036E-1,-5.9718555E-1,2.467E3,-2.7827094E0,3.1E1,6.4727503E-1,6.2E2,5.1373464E-1,-8.66911E-2,-3.9406374E-2,5.755441E0,3.8720365E0,-1.7545961E-1,-1.0863771E-1,2.0440576E0,-6.197761E0,2.3452713E0,-3.2987976E0,-4.0355683E-3,-1.3078521E0,7.6000495E0,2.8876243E0,1.4345818E1,5.6450014E0,3.1300581E1,2.2834122E0,-5.5815096E0,5.9136623E-1,3.1388245E0,-4.1769586E0,2.0961746E1,-7.7764587E0,-2.1776774E0,1.0597951E1,-1.5452968E0,1.11703746E-1,-5.403355E0,1.338713E0,-1.89015E0,-2.593893E0,1.06975E0,2.503901E1,1.6148332E0,-1.451146E0,3.076013E0,1.1448254E1,-3.1616485E0,-1.6834568E-2,-4.022693E0,1.6795578E0,9.9917786E1,4.232464E0,-6.06685E0,1.0425025E1,2.2858873E1,-3.3122811E0,6.6480255E0,2.1026037E1,9.866192E-1],"split_indices":[1,3,0,4,1,1,1,1,1,0,3,4,3,2,0,0,0,0,4,2,3,3,4,4,1,0,0,1,3,0,1,0,1,0,4,4,4,3,0,0,0,0,4,2,4,2,4,0,0,3,0,1,3,3,0,0,0,0,0,0,0,0,0,0,0,0,0,0,0,0,0,0,0,0,0,0,0,0,0,0,0,0,0,0,0,0,0,0,0,0,0,0,0,0,0,0,0,0,0],"split_type":[0,0,0,0,0,0,0,0,0,0,0,0,0,0,0,0,0,0,0,0,0,0,0,0,0,0,0,0,0,0,0,0,0,0,0,0,0,0,0,0,0,0,0,0,0,0,0,0,0,0,0,0,0,0,0,0,0,0,0,0,0,0,0,0,0,0,0,0,0,0,0,0,0,0,0,0,0,0,0,0,0,0,0,0,0,0,0,0,0,0,0,0,0,0,0,0,0,0,0],"sum_hessian":[1.217E4,4.151E3,8.019E3,2.9E1,4.122E3,1.208E3,6.811E3,1.3E1,1.6E1,5.2E1,4.07E3,1.138E3,7E1,6.034E3,7.77E2,1.1E1,2E0,6E0,1E1,4.1E1,1.1E1,3.928E3,1.42E2,8.02E2,3.36E2,6.9E1,1E0,2.626E3,3.408E3,3.55E2,4.22E2,3E0,3E0,2E0,8E0,2.9E1,1.2E1,8E0,3E0,3.91E3,1.8E1,8.5E1,5.7E1,4.7E1,7.55E2,2.15E2,1.21E2,2.055E3,5.71E2,3.065E3,3.43E2,2.55E2,1E2,4.03E2,1.9E1,2E0,1E0,5E0,3E0,2.1E1,8E0,6E0,6E0,2E0,6E0,1E0,2E0,3.588E3,3.22E2,6E0,1.2E1,3.8E1,4.7E1,6E0,5.1E1,5E0,4.2E1,5.8E1,6.97E2,1.56E2,5.9E1,3E0,1.18E2,1.707E3,3.48E2,3.4E1,5.37E2,2.877E3,1.88E2,3.42E2,1E0,2.13E2,4.2E1,8.2E1,1.8E1,3.66E2,3.7E1,1.2E1,7E0],"tree_param":{"num_deleted":"0","num_feature":"5","num_nodes":"99","size_leaf_vector":"1"}},{"base_weights":[2.605856E-1,1.8431128E1,-1.7340891E0,2.190139E0,2.9383408E1,-2.8304737E0,1.8763737E1,-2.1693188E1,9.071336E0,2.2071009E1,8.2949425E1,-1.6001497E1,-1.4618281E0,1.3539782E1,1.8390466E2,5.5353745E1,-3.0034834E1,2.6754942E0,4.1008076E1,1.2496825E1,5.838724E1,1.5456247E2,1.7317156E1,-1.7059214E1,3.341482E1,-6.784023E0,2.0559502E0,1.1653357E2,4.861223E0,5.256411E1,3.2509225E2,9.082097E0,1.7571745E1,-5.69489E1,-1.8071167E1,9.3957263E-1,1.3784247E2,5.8589832E1,-5.803422E1,1.5527807E1,-6.553071E1,-9.6884056E1,7.330351E1,3.115689E2,8.660781E1,4.7781765E1,-9.713361E1,-1.8918663E1,3.0742397E1,-2.625406E1,-5.158626E0,9.615347E-1,3.128016E1,2.1966295E2,2.1789177E1,-9.11905E0,3.0649448E1,6.1642704E0,1.5877565E1,4.7905117E1,1.369067E2,5.001621E0,-3.366843E0,3.371582E-1,-6.137792E0,-7.1588607E0,-5.764306E-1,1.0483671E0,-2.5204265E0,2.230072E0,1.6892282E1,1.85931E1,3.2401567E0,1.7127685E-1,-6.4863086E0,1.3373187E0,3.572459E1,3.8207474E-1,-7.8772902E0,-1.0812009E1,-2.713592E0,1.847484E1,5.456192E0,3.4041145E1,-2.8495026E-1,5.5573287E0,2.7443884E1,-6.3252053E0,1.2636173E1,3.7303529E0,-1.1621591E1,6.1663055E-1,-2.2242596E0,8.854343E-1,2.0910526E1,-6.6704345E0,-2.2998633E0,-1.1107423E0,2.4825887E-1,1.0039598E1,4.870791E-2,1.6608166E0,1.5904391E1,2.716723E1,5.3029037E0,5.924381E0,-2.1362112E-1,4.165602E-2,-7.707069E0,8.486552E0,-1.0888939E-1,3.4854515E0,-3.1239603E0,-7.4288516E0,2.0827763E1],"categories":[],"categories_nodes":[],"categories_segments":[],"categories_sizes":[],"default_left":[0,0,0,0,0,0,0,0,0,0,0,0,0,0,0,0,0,0,0,0,0,0,0,0,0,0,0,0,0,0,0,0,0,0,0,0,0,0,0,0,0,0,0,0,0,0,0,0,0,0,0,0,0,0,0,0,0,0,0,0,0,0,0,0,0,0,0,0,0,0,0,0,0,0,0,0,0,0,0,0,0,0,0,0,0,0,0,0,0,0,0,0,0,0,0,0,0,0,0,0,0,0,0,0,0,0,0,0,0,0,0,0,0,0,0],"id":15,"left_children":[1,3,5,7,9,11,13,15,17,19,21,23,25,27,29,31,33,35,37,39,41,43,45,47,-1,49,51,53,55,57,59,61,-1,63,65,67,69,71,73,75,77,79,81,83,85,87,89,91,93,95,97,99,101,103,105,107,109,111,-1,-1,113,-1,-1,-1,-1,-1,-1,-1,-1,-1,-1,-1,-1,-1,-1,-1,-1,-1,-1,-1,-1,-1,-1,-1,-1,-1,-1,-1,-1,-1,-1,-1,-1,-1,-1,-1,-1,-1,-1,-1,-1,-1,-1,-1,-1,-1,-1,-1,-1,-1,-1,-1,-1,-1,-1],"loss_changes":[4.411616E5,2.1409812E5,2.465424E5,8.0068875E4,2.7979875E5,1.8766814E5,4.7802756E5,7.171666E4,7.710145E4,2.19711E5,4.015343E5,3.6865256E5,1.766214E5,4.829997E5,2.9815406E5,5.9667805E4,3.084796E4,7.401649E4,1.1310449E5,1.1997707E5,3.1282294E5,4.104578E5,1.6502931E5,8.751078E4,0E0,1.1866567E5,1.816358E5,4.0559275E5,1.8054269E5,4.8303246E4,1.6619744E5,1.7433557E4,0E0,8.221758E3,4.5691562E4,7.83638E4,1.0597203E4,1.7405719E5,4.191133E3,3.523149E5,1.7749922E4,6.470375E3,2.4264694E5,1.097935E5,1.5962592E5,3.3081888E5,2.998896E4,7.868184E4,1.425971E5,3.652228E4,1.575782E5,2.5829358E5,3.8164112E5,1.5892394E5,2.0737236E4,2.1061917E5,3.0294062E5,9.67385E3,0E0,0E0,9.0838625E4,0E0,0E0,0E0,0E0,0E0,0E0,0E0,0E0,0E0,0E0,0E0,0E0,0E0,0E0,0E0,0E0,0E0,0E0,0E0,0E0,0E0,0E0,0E0,0E0,0E0,0E0,0E0,0E0,0E0,0E0,0E0,0E0,0E0,0E0,0E0,0E0,0E0,0E0,0E0,0E0,0E0,0E0,0E0,0E0,0E0,0E0,0E0,0E0,0E0,0E0,0E0,0E0,0E0,0E0],"parents":[2147483647,0,0,1,1,2,2,3,3,4,4,5,5,6,6,7,7,8,8,9,9,10,10,11,11,12,12,13,13,14,14,15,15,16,16,17,17,18,18,19,19,20,20,21,21,22,22,23,23,25,25,26,26,27,27,28,28,29,29,30,30,31,31,33,33,34,34,35,35,36,36,37,37,38,38,39,39,40,40,41,41,42,42,43,43,44,44,45,45,46,46,47,47,48,48,49,49,50,50,51,51,52,52,53,53,54,54,55,55,56,56,57,57,60,60],"right_children":[2,4,6,8,10,12,14,16,18,20,22,24,26,28,30,32,34,36,38,40,42,44,46,48,-1,50,52,54,56,58,60,62,-1,64,66,68,70,72,74,76,78,80,82,84,86,88,90,92,94,96,98,100,102,104,106,108,110,112,-1,-1,114,-1,-1,-1,-1,-1,-1,-1,-1,-1,-1,-1,-1,-1,-1,-1,-1,-1,-1,-1,-1,-1,-1,-1,-1,-1,-1,-1,-1,-1,-1,-1,-1,-1,-1,-1,-1,-1,-1,-1,-1,-1,-1,-1,-1,-1,-1,-1,-1,-1,-1,-1,-1,-1,-1],"split_conditions":[-8.76096E-1,-6.329094E-1,1.6272706E0,1.5727727E-1,2.467E3,-2.656531E-1,-2.628421E-1,-2.6059327E-1,-6.3556176E-1,-5.4422146E-1,-6.142601E-1,4.66E2,1.5727727E-1,-7.075476E-1,-3.9922732E-1,-2.6324368E-1,-3.327205E-1,5.530343E0,8.9328915E-1,1.8011674E0,-2.655728E-1,-9.583148E-1,5.972E3,2.8196366E0,3.341482E1,-6.0373354E-1,1.6297109E0,-2.6750034E-1,5.4628825E-1,-2.5111613E-1,4.6818042E-1,-6.44845E-1,1.7571745E1,-9.747585E-1,-2.2822642E-1,-6.3771677E-1,-6.459225E-1,-9.583148E-1,8.12E2,1.4725996E0,1.5727727E-1,-8.8020694E-1,-9.45982E-1,1.1372728E0,5.972E3,1.6539632E-1,-2.1184221E-1,-2.673397E-1,1.14E2,-8.637632E-1,1.46E2,1E0,1.4218535E-1,1.1E1,1.2E1,3.3663043E-1,6.902817E-1,-4.4044828E-1,1.5877565E1,4.7905117E1,-4.839779E-2,5.001621E0,-3.366843E0,3.371582E-1,-6.137792E0,-7.1588607E0,-5.764306E-1,1.0483671E0,-2.5204265E0,2.230072E0,1.6892282E1,1.85931E1,3.2401567E0,1.7127685E-1,-6.4863086E0,1.3373187E0,3.572459E1,3.8207474E-1,-7.8772902E0,-1.0812009E1,-2.713592E0,1.847484E1,5.456192E0,3.4041145E1,-2.8495026E-1,5.5573287E0,2.7443884E1,-6.3252053E0,1.2636173E1,3.7303529E0,-1.1621591E1,6.1663055E-1,-2.2242596E0,8.854343E-1,2.0910526E1,-6.6704345E0,-2.2998633E0,-1.1107423E0,2.4825887E-1,1.0039598E1,4.870791E-2,1.6608166E0,1.5904391E1,2.716723E1,5.3029037E0,5.924381E0,-2.1362112E-1,4.165602E-2,-7.707069E0,8.486552E0,-1.0888939E-1,3.4854515E0,-3.1239603E0,-7.4288516E0,2.0827763E1],"split_indices":[1,0,2,2,4,3,3,3,0,0,0,4,2,1,1,3,2,3,3,3,3,1,4,1,0,0,0,3,1,3,1,0,0,1,3,0,0,1,4,3,2,1,1,2,4,3,3,3,4,1,4,4,3,4,4,1,0,0,0,0,0,0,0,0,0,0,0,0,0,0,0,0,0,0,0,0,0,0,0,0,0,0,0,0,0,0,0,0,0,0,0,0,0,0,0,0,0,0,0,0,0,0,0,0,0,0,0,0,0,0,0,0,0,0,0],"split_type":[0,0,0,0,0,0,0,0,0,0,0,0,0,0,0,0,0,0,0,0,0,0,0,0,0,0,0,0,0,0,0,0,0,0,0,0,0,0,0,0,0,0,0,0,0,0,0,0,0,0,0,0,0,0,0,0,0,0,0,0,0,0,0,0,0,0,0,0,0,0,0,0,0,0,0,0,0,0,0,0,0,0,0,0,0,0,0,0,0,0,0,0,0,0,0,0,0,0,0,0,0,0,0,0,0,0,0,0,0,0,0,0,0,0,0],"sum_hessian":[1.217E4,1.203E3,1.0967E4,4.85E2,7.18E2,1.0411E4,5.56E2,1.08E2,3.77E2,6.33E2,8.5E1,9.79E2,9.432E3,5.4E2,1.6E1,1E1,9.8E1,3.15E2,6.2E1,5.02E2,1.31E2,4E1,4.5E1,9.77E2,2E0,3.753E3,5.679E3,4.1E1,4.99E2,9E0,7E0,8E0,2E0,2.9E1,6.9E1,3.12E2,3E0,5.3E1,9E0,4.84E2,1.8E1,1.1E1,1.2E2,1.1E1,2.9E1,3.6E1,9E0,9.41E2,3.6E1,2.88E2,3.465E3,5.475E3,2.04E2,1.9E1,2.2E1,3.24E2,1.75E2,7E0,2E0,3E0,4E0,4E0,4E0,2E0,2.7E1,1.2E1,5.7E1,2.29E2,8.3E1,1E0,2E0,8E0,4.5E1,1E0,8E0,4.82E2,2E0,3E0,1.5E1,9E0,2E0,1.6E1,1.04E2,1E1,1E0,2.6E1,3E0,1.5E1,2.1E1,1E0,8E0,1.1E2,8.31E2,3.3E1,3E0,2E1,2.68E2,1.948E3,1.517E3,2.5E1,5.45E3,1.84E2,2E1,1.4E1,5E0,8E0,1.4E1,2.85E2,3.9E1,6.4E1,1.11E2,4E0,3E0,1E0,3E0],"tree_param":{"num_deleted":"0","num_feature":"5","num_nodes":"115","size_leaf_vector":"1"}},{"base_weights":[2.6179388E-1,1.5260511E1,-1.7570735E0,1.1694126E1,1.002832E2,-2.7126744E0,1.5897847E1,6.2697113E1,9.660528E0,6.859632E1,5.10907E2,-2.484814E1,-2.0309634E0,1.0969027E1,1.7007556E2,3.3237427E1,1.6058125E2,-6.221608E0,1.6510303E1,4.4386642E1,5.3427128E1,7.105791E1,-4.4054565E0,-2.6749844E1,2.7568378E1,-1.3453602E1,-8.460909E-1,1.0222687E2,4.376524E0,4.8931602E1,3.0024606E2,1.024539E1,8.373924E1,2.2960912E2,-3.487677E1,1.0573477E1,-1.5906963E1,5.1549263E0,4.394398E1,1.6115189E2,7.86243E0,-3.0602839E1,3.9871326E1,-1.180831E1,-7.493425E1,7.782917E0,-3.2312245E0,2.003768E2,4.4802876E1,1.3822781E0,1.1643926E2,5.593027E0,1.481906E1,4.971186E1,1.5176877E2,-1.2441257E0,7.418883E0,2.59298E0,1.2958594E1,4.6082625E0,2.7546204E1,1.5374329E0,-5.6751914E0,-6.096768E-1,6.8851504E0,-1.6938645E0,1.2358592E1,1.647785E1,3.6870968E-1,5.365136E0,-3.6474152E0,7.90348E0,3.260025E1,2.7063612E1,-6.17467E-1,-2.559621E0,-5.919874E0,1.2224145E0,2.4111313E1,-3.1141326E0,-7.4554867E-1,-8.186217E0,8.486023E-2,1.5015215E0,-8.292438E-1,-8.1945866E-1,7.6226555E-2,2.1380342E1,1.9628617E0,2.3766055E0,1.1998958E1,1.0254347E0,-2.5611966E0,2.4956717E1,-8.047114E0,3.2066147E0,-2.889663E0,-7.0574083E0,2.1035215E1],"categories":[],"categories_nodes":[],"categories_segments":[],"categories_sizes":[],"default_left":[0,0,0,0,0,0,0,0,0,0,0,0,0,0,0,0,0,0,0,0,0,0,0,0,0,0,0,0,0,0,0,0,0,0,0,0,0,0,0,0,0,0,0,0,0,0,0,0,0,0,0,0,0,0,0,0,0,0,0,0,0,0,0,0,0,0,0,0,0,0,0,0,0,0,0,0,0,0,0,0,0,0,0,0,0,0,0,0,0,0,0,0,0,0,0,0,0,0,0],"id":16,"left_children":[1,3,5,7,9,11,13,15,17,19,21,23,25,27,29,31,33,35,37,-1,39,-1,-1,41,-1,43,45,47,49,51,53,55,57,59,61,63,65,67,69,71,73,75,77,79,81,83,85,87,89,91,93,95,-1,-1,97,-1,-1,-1,-1,-1,-1,-1,-1,-1,-1,-1,-1,-1,-1,-1,-1,-1,-1,-1,-1,-1,-1,-1,-1,-1,-1,-1,-1,-1,-1,-1,-1,-1,-1,-1,-1,-1,-1,-1,-1,-1,-1,-1,-1],"loss_changes":[3.685698E5,4.3668228E5,1.8103581E5,1.432533E5,7.1961406E5,1.5353544E5,4.1684716E5,1.4749539E5,1.4533612E5,2.8937547E5,4.7454562E5,1.8111725E5,1.3364053E5,3.21418E5,2.5338778E5,4.7909918E4,1.6991262E5,6.5722734E4,2.9042144E5,0E0,2.6378903E5,0E0,0E0,7.899758E4,0E0,9.298569E4,1.8418695E5,1.9392431E5,1.6761075E5,4.218861E4,1.5840169E5,4.4442875E4,3.109471E4,6.3043E4,5.269523E3,1.442031E5,3.893491E4,1.5426488E5,2.1507412E5,1.9082734E5,1.4552573E5,3.957425E4,9.1636664E4,7.5926484E4,1.2669891E4,2.2543975E5,1.3897223E5,2.735225E4,3.510886E4,1.1713608E5,3.6086844E5,8.230994E3,0E0,0E0,9.2999E4,0E0,0E0,0E0,0E0,0E0,0E0,0E0,0E0,0E0,0E0,0E0,0E0,0E0,0E0,0E0,0E0,0E0,0E0,0E0,0E0,0E0,0E0,0E0,0E0,0E0,0E0,0E0,0E0,0E0,0E0,0E0,0E0,0E0,0E0,0E0,0E0,0E0,0E0,0E0,0E0,0E0,0E0,0E0,0E0],"parents":[2147483647,0,0,1,1,2,2,3,3,4,4,5,5,6,6,7,7,8,8,9,9,10,10,11,11,12,12,13,13,14,14,15,15,16,16,17,17,18,18,20,20,23,23,25,25,26,26,27,27,28,28,29,29,30,30,31,31,32,32,33,33,34,34,35,35,36,36,37,37,38,38,39,39,40,40,41,41,42,42,43,43,44,44,45,45,46,46,47,47,48,48,49,49,50,50,51,51,54,54],"right_children":[2,4,6,8,10,12,14,16,18,20,22,24,26,28,30,32,34,36,38,-1,40,-1,-1,42,-1,44,46,48,50,52,54,56,58,60,62,64,66,68,70,72,74,76,78,80,82,84,86,88,90,92,94,96,-1,-1,98,-1,-1,-1,-1,-1,-1,-1,-1,-1,-1,-1,-1,-1,-1,-1,-1,-1,-1,-1,-1,-1,-1,-1,-1,-1,-1,-1,-1,-1,-1,-1,-1,-1,-1,-1,-1,-1,-1,-1,-1,-1,-1,-1,-1],"split_conditions":[-8.5554135E-1,-3.095714E-1,1.6272706E0,-9.747585E-1,-8.596523E-1,-1.8027138E0,-2.628421E-1,-6.19399E-1,-6.3556176E-1,-3.0335492E-1,1.1206938E-1,2.1944816E-1,-6.0505974E-1,-7.075476E-1,-3.9922732E-1,6.4727503E-1,-1.291983E-1,5.15E2,1.149E3,4.4386642E1,-9.1309446E-1,7.105791E1,-4.4054565E0,2.260549E0,2.7568378E1,1.5986013E-1,-5.677757E-1,-2.6758066E-1,2.8196366E0,-2.5111613E-1,-2.6203895E-1,4.489878E-1,1.109E3,-2.5954917E-1,-6.064688E-1,-9.377948E-2,1.16147E5,-2.6750034E-1,1.8011674E0,6.4727503E-1,-2.6750034E-1,1.3766975E0,-2.3834608E-1,1.31E2,2.178E3,6.4727503E-1,-6.2130466E-2,-3.789469E-1,-7.4454606E-1,-2.6709878E-1,-2.6742002E-1,-4.4044828E-1,1.481906E1,4.971186E1,-4.839779E-2,-1.2441257E0,7.418883E0,2.59298E0,1.2958594E1,4.6082625E0,2.7546204E1,1.5374329E0,-5.6751914E0,-6.096768E-1,6.8851504E0,-1.6938645E0,1.2358592E1,1.647785E1,3.6870968E-1,5.365136E0,-3.6474152E0,7.90348E0,3.260025E1,2.7063612E1,-6.17467E-1,-2.559621E0,-5.919874E0,1.2224145E0,2.4111313E1,-3.1141326E0,-7.4554867E-1,-8.186217E0,8.486023E-2,1.5015215E0,-8.292438E-1,-8.1945866E-1,7.6226555E-2,2.1380342E1,1.9628617E0,2.3766055E0,1.1998958E1,1.0254347E0,-2.5611966E0,2.4956717E1,-8.047114E0,3.2066147E0,-2.889663E0,-7.0574083E0,2.1035215E1],"split_indices":[1,0,2,1,1,2,3,0,0,0,0,3,0,1,1,2,3,4,4,0,1,0,0,1,0,1,1,3,1,3,3,3,4,3,0,3,4,3,3,2,3,1,3,4,4,2,1,0,1,3,3,0,0,0,0,0,0,0,0,0,0,0,0,0,0,0,0,0,0,0,0,0,0,0,0,0,0,0,0,0,0,0,0,0,0,0,0,0,0,0,0,0,0,0,0,0,0,0,0],"split_type":[0,0,0,0,0,0,0,0,0,0,0,0,0,0,0,0,0,0,0,0,0,0,0,0,0,0,0,0,0,0,0,0,0,0,0,0,0,0,0,0,0,0,0,0,0,0,0,0,0,0,0,0,0,0,0,0,0,0,0,0,0,0,0,0,0,0,0,0,0,0,0,0,0,0,0,0,0,0,0,0,0,0,0,0,0,0,0,0,0,0,0,0,0,0,0,0,0,0,0],"sum_hessian":[1.217E4,1.443E3,1.0727E4,1.386E3,5.7E1,1.0177E4,5.5E2,5.2E1,1.334E3,5.4E1,3E0,3.03E2,9.874E3,5.34E2,1.6E1,4.1E1,1.1E1,4.02E2,9.32E2,1E0,5.3E1,2E0,1E0,3.02E2,1E0,9.27E2,8.947E3,3.5E1,4.99E2,9E0,7E0,2.9E1,1.2E1,8E0,3E0,1.47E2,2.55E2,6.6E2,2.72E2,1.5E1,3.8E1,2.86E2,1.6E1,9.04E2,2.3E1,1.937E3,7.01E3,1.2E1,2.3E1,4.87E2,1.2E1,7E0,2E0,2E0,5E0,2.2E1,7E0,6E0,6E0,2E0,6E0,1E0,2E0,1.15E2,3.2E1,2.54E2,1E0,5E0,6.55E2,2.43E2,2.9E1,1.1E1,4E0,1E0,3.7E1,2.45E2,4.1E1,1.5E1,1E0,1.65E2,7.39E2,2.1E1,2E0,1.336E3,6.01E2,3.125E3,3.885E3,1.1E1,1E0,1.9E1,4E0,3.67E2,1.2E2,7E0,5E0,4E0,3E0,1E0,4E0],"tree_param":{"num_deleted":"0","num_feature":"5","num_nodes":"99","size_leaf_vector":"1"}},{"base_weights":[2.707392E-1,1.54619055E1,-1.3968788E0,4.328872E0,2.7313166E1,-6.524562E0,1.8918606E0,2.578602E1,3.0951257E0,-1.0464418E1,3.5924625E1,-1.3199537E1,-3.017344E0,2.3912527E1,8.856142E-1,1.954055E1,2.4687672E0,1.293886E1,-5.6355633E1,3.1123343E1,1.2892708E2,-1.2024602E1,-5.734515E1,3.193335E2,-3.4754586E0,2.149569E2,1.4957209E1,-1.374812E1,2.5986521E0,-3.0854189E1,5.1977553E0,-2.355133E1,1.2574507E2,1.3607109E2,-7.123919E1,1.1237622E2,2.6515919E1,-3.77658E1,1.558193E2,-1.5338452E1,